-4.20587,-3.65345,-1.81785,-10.8147,-7.77001,-9.52867,-10.4865,-9.13052,-10.0219,-0.809648,-2.52235,-8.1046,-10.671,-3.53874,-10.8083,-2.68726,0.872389,-1.0498,-4.35853,0.247169,-12.1405,-11.4573,-10.8517,-2.33504,-10.022,-10.6809,-10.7388,-4.68416,-0.0268809,-10.6187,-11.8905,-11.1773,-2.63122,-9.50393,-1.11873,-0.483291,-9.53729,0.635628,-8.63128,-9.37801,-3.1573,-10.5271,-3.48345,-9.16811,-8.88924,-0.957183,-2.89251,-9.00201,-0.846551,-2.3595
0.0063753,-3.15614,-0.777313,-11.4154,-11.5526,-11.4593,-10.8464,-11.3556,-11.4557,-0.335453,0.405754,-8.89531,-12.4678,-4.08232,-10.8775,-1.37712,0.204127,0.179238,-3.95044,0.694693,-11.0848,-12.1371,-12.1177,-0.454592,-12.4955,-12.2272,-12.3936,-2.919,-0.923928,-11.2253,-12.4336,-9.59051,-0.0710059,-12.1109,-0.788879,0.91723,-11.0299,0.905828,-11.4362,-11.9446,-4.11092,-12.0309,-0.626747,-11.8955,-11.3429,-0.961932,-2.86663,-10.2999,0.219681,-0.216989
-0.906962,-4.14147,-1.79231,-12.0389,-11.3281,-11.3234,-11.725,-11.1834,-11.4809,-0.0946719,-0.31474,-11.3696,-10.5624,-3.19776,-10.9441,-0.796836,0.535856,0.12035,-4.74706,-0.362608,-10.8413,-11.8722,-11.4088,-0.909478,-11.2277,-12.2123,-12.4233,-3.58601,-0.255971,-11.2024,-12.5475,-11.7139,-0.971474,-11.3586,0.356147,0.256417,-12.1263,-0.812611,-11.9256,-11.051,0.0890058,-11.2406,-0.316583,-11.4685,-11.6217,-0.703709,-3.5198,-12.0846,0.418082,0.402417
0.103251,-3.65095,-4.75931,-12.2913,-11.315,-11.1288,-11.9465,-11.185,-11.9042,0.339065,-0.290478,-11.8904,-12.3628,-4.03916,-10.6987,0.533863,0.99813,-0.727631,-3.11808,-0.373359,-10.7673,-11.7252,-10.6016,-0.539357,-10.6378,-11.6683,-11.7825,-3.22418,0.344586,-12.3637,-11.9438,-12.0897,0.310438,-11.8556,-0.296427,-0.46047,-12.4407,0.301535,-10.6435,-11.8006,-0.364864,-11.9343,0.385541,-11.7205,-11.1921,0.232301,-4.41035,-11.1922,0.50679,-0.917247
0.972514,-3.51243,-3.94825,-10.6311,-10.7967,-11.739,-11.7545,-12.0378,-12.5412,-0.864497,-0.31289,-11.9357,-11.9584,-4.79157,-11.2528,0.290276,-0.458569,0.395642,-4.25344,-0.560692,-12.4099,-11.3104,-11.4985,0.525097,-12.4873,-12.1479,-11.7857,-0.59299,0.748243,-12.2778,-12.0447,-10.821,0.551826,-11.1409,0.639951,0.302895,-12.3325,-0.566593,-10.7332,-12.3258,-0.435832,-12.0464,-0.176603,-11.3881,-12.0441,-0.880435,-1.94842,-11.5012,0.517048,0.0452703
0.476716,-3.06169,-4.54837,-12.0064,-11.348,-12.1925,-11.6041,-10.5906,-11.7725,-0.323771,-0.789289,-11.2587,-12.1318,-2.70951,-11.8636,-0.962043,0.0711267,-0.116173,-4.34887,-0.116756,-11.4315,-11.4882,-11.1513,0.928262,-12.3282,-10.6492,-12.4811,-0.367562,-0.0693433,-10.963,-10.8329,-12.1188,0.222959,-10.5471,-0.0565444,-0.588042,-12.2033,0.876899,-12.175,-11.4384,-0.457058,-11.965,-0.64612,-11.5756,-12.1959,0.0299047,-0.0256357,-11.1214,0.917683,0.478317
-0.716266,-3.56891,-4.31413,-10.8801,-11.5885,-11.8177,-10.9891,-11.5399,-11.158,-0.509864,-0.419043,-10.4833,-11.6441,0.756065,-11.4652,0.845362,-0.774128,0.416684,-3.09766,-0.417258,-12.042,-12.267,-11.3996,-0.131296,-11.3057,-11.0614,-10.6445,-0.787407,-0.0972687,-10.7247,-10.8255,-11.354,-0.153251,-12.293,-0.129942,0.814004,-11.5562,-0.562526,-11.7207,-12.1578,-0.0871974,-11.1407,0.482338,-10.712,-11.3255,-0.423411,0.652705,-11.0948,-1.00098,0.422327
-0.96659,-0.499555,-3.14749,-11.3678,-11.1618,-11.595,-11.8742,-11.2545,-11.344,0.583527,0.128752,-11.609,-11.7752,0.970148,-11.3512,0.652037,0.79839,-0.798646,-4.7674,-0.373984,-11.9628,-11.5326,-12.5168,-0.915608,-11.6914,-11.2899,-11.8892,-0.44948,-0.280507,-11.8874,-10.5706,-11.7922,0.183885,-10.8556,0.943766,-0.42113,-11.8941,-0.373491,-10.6743,-10.6812,-0.793603,-11.5458,-0.184394,-11.5641,-11.5611,-0.977922,-0.36427,-11.7615,-0.775155,-0.263093
0.415008,-0.210319,-3.07927,-11.0828,-11.6312,-11.9132,-11.8144,-10.9667,-11.3528,0.442519,-0.760582,-11.3608,-12.3395,0.401633,-11.6662,-0.859635,-0.993852,0.533904,-4.06539,0.886744,-11.1315,-11.558,-11.6422,-0.775387,-10.5652,-10.6477,-12.2885,-0.396675,-0.314594,-12.0629,-11.1832,-11.4093,0.292811,-11.4199,0.561742,-0.797759,-10.7931,-0.711719,-10.7622,-11.605,0.724239,-12.5232,-0.898423,-10.6067,-11.0953,-0.022323,-0.941859,-11.0871,-0.485873,-0.153982
0.332988,0.898371,-3.01367,-12.3086,-12.386,-10.7372,-12.4148,-12.1373,-12.1166,-0.190194,-0.121551,-10.7535,-11.6245,-0.846271,-11.639,-0.524044,-0.621228,-0.352793,-4.07247,-0.846094,-10.9609,-12.0409,-12.3705,0.684735,-12.1076,-10.9269,-11.8739,-0.504769,0.0644895,-11.3585,-11.1845,-12.1378,0.104537,-11.3533,-0.366028,0.260572,-11.5489,-0.238505,-10.8746,-11.1232,0.565469,-11.9966,0.195041,-12.0515,-11.8195,-0.900439,-0.0478603,-11.4389,-0.250968,0.735051
0.242496,-0.748775,-4.60617,-11.1373,-12.5311,-11.8868,-11.5177,-11.8707,-11.3753,-0.901904,0.863393,-12.0024,-12.0515,-0.0920794,-10.8306,0.129224,-0.762906,-0.285699,-2.93399,0.901554,-12.4261,-11.0838,-12.1105,0.326073,-10.5922,-11.3901,-11.1209,-0.112244,-0.732354,-12.3705,-11.8922,-11.0328,-0.491415,-11.651,-0.057987,-0.462788,-10.9794,0.985032,-11.3272,-11.7941,-0.934434,-11.465,0.286307,-11.9631,-12.4869,0.0198928,0.682762,-12.2442,0.741004,0.629644
-0.800557,0.820803,-3.729,-11.895,-11.3264,-11.4726,-10.7237,-11.8954,-12.5388,-0.914507,-0.167788,-11.8583,-10.9341,0.303679,-10.9633,-0.45082,0.891253,0.15691,-4.28432,0.115002,-10.6301,-11.9161,-12.3378,0.210518,-11.3213,-12.2693,-12.3039,-0.0761262,-0.416794,-10.5594,-11.9575,-11.7523,0.859052,-10.8453,0.442231,0.0804003,-11.7711,0.266986,-10.8104,-11.7616,0.339588,-11.9791,0.448508,-11.5777,-10.6239,0.0361683,0.487494,-10.7285,-0.801922,-0.93706
-0.0845919,-0.964619,-4.14901,-11.4308,-11.2177,-10.6401,-11.1485,-10.9831,-11.6818,0.989619,0.557961,-11.0747,-11.7738,0.357879,-11.3906,-0.779813,-0.490061,0.940329,-3.33941,-0.759257,-11.8394,-11.7075,-11.7528,-0.825613,-10.7377,-11.8326,-11.3374,0.299673,-0.458657,-11.1367,-11.1524,-11.0895,0.533528,-12.4511,-0.400469,-0.120481,-12.5289,-0.984223,-12.097,-11.6461,-1.01295,-12.5403,-0.631731,-11.7629,-11.1092,0.546023,-0.0239951,-10.5933,0.493466,-0.478156
-0.800774,-0.792529,-3.48242,-11.5503,-12.1508,-11.3544,-10.8203,-10.929,-12.0073,-0.721436,0.052063,-10.5908,-10.8102,-0.417212,-12.4833,-0.649973,0.475782,-0.893438,-4.49356,0.933282,-11.5419,-12.1801,-10.6041,0.396047,-11.3824,-11.1535,-11.6097,-0.804034,0.366063,-12.1129,-11.8276,-10.9893,-0.332807,-12.4448,-0.423952,0.0756035,-11.2402,-0.684889,-11.8522,-10.6881,-0.409769,-10.8004,0.832192,-12.2155,-12.2038,0.909028,-0.314687,-10.7269,-0.983071,0.0621581
0.748754,-0.0702573,-3.42644,-10.8775,-12.1481,-11.9718,-11.4654,-11.2079,-11.7653,-0.517284,0.820265,-11.0141,-12.5312,-0.593226,-10.9214,-0.380079,0.572115,-0.0190345,-3.90635,-0.722611,-11.7385,-11.0475,-12.5533,-0.31942,-10.7014,-12.1998,-11.9873,-0.476828,-0.779023,-11.9694,-10.9504,-10.6019,0.642517,-11.5034,0.697669,-0.91251,-10.8839,-0.173363,-11.1122,-12.055,0.286379,-11.2935,-0.930999,-11.2149,-10.795,0.7465,-1.05837,-11.2154,-0.263625,-0.0498757
0.632459,0.524638,-4.3407,-10.8785,-12.2574,-12.1654,-12.4833,-11.6616,-11.582,-0.714665,0.505574,-11.9233,-12.2772,0.102827,-10.8508,0.968106,0.252618,0.403832,-4.02675,-0.278047,-10.6201,-12.4332,-12.5338,-0.986846,-11.0576,-10.7412,-10.7787,0.46109,0.177656,-12.0379,-12.0983,-11.7298,-0.896083,-11.5941,-0.5045,-0.598138,-11.2054,-0.431595,-11.2541,-12.2314,-0.162209,-11.7496,-0.0774906,-11.4186,-10.5831,-0.368889,0.0656013,-11.3253,-0.958872,0.91135
0.927476,0.868425,-4.84366,-10.6483,-12.5928,-11.073,-10.8289,-10.8282,-11.5692,-0.0553007,-0.717493,-11.0898,-10.8301,-0.693407,-12.153,-0.743234,-0.19563,0.792303,-4.02248,-0.902432,-12.4938,-10.907,-11.7021,0.037657,-11.7703,-11.7344,-10.9183,0.88069,-0.90813,-10.8738,-10.7509,-12.5655,0.697524,-10.7086,0.991972,0.712436,-11.1758,0.772179,-11.1071,-12.1362,-0.307678,-10.8262,0.938146,-12.1058,-12.4216,-0.600919,-0.30164,-11.6092,-0.799094,0.60205
0.0672682,-0.788716,-3.56926,-10.6223,-11.2195,-12.4601,-11.7449,-11.5434,-12.5146,-0.0607224,-0.221542,-10.6346,-11.617,-0.597916,-10.7604,-0.0352007,-0.791128,0.261877,-4.109,0.697204,-10.8763,-11.1259,-11.1239,0.67262,-10.6257,-10.9441,-12.5093,-0.319975,-0.357634,-12.3035,-12.2554,-10.8718,-0.394758,-10.9421,0.704194,0.989643,-10.8002,-0.43545,-11.5452,-10.7098,0.479672,-10.7683,0.812816,-12.1059,-12.2698,0.662394,0.403432,-12.0531,-0.0663617,-0.782349
-0.767476,-0.350082,-3.15699,-10.843,-12.1986,-10.8789,-11.185,-12.1099,-12.1365,-0.991007,-0.262525,-11.7817,-10.8171,0.340828,-12.1261,0.442966,0.346254,-0.774276,-4.84463,-0.607183,-12.4429,-11.0321,-12.3274,0.937464,-12.5384,-11.9985,-10.9443,0.476756,0.0925049,-12.0062,-10.8422,-11.2233,0.21297,-11.1404,0.0376856,0.5679,-11.4661,-0.593528,-12.5405,-11.0488,-0.58857,-11.8033,-0.731976,-12.4004,-12.4463,-0.303531,0.586172,-11.0988,-0.0762402,0.606618
0.843044,0.018792,-3.73246,-12.4859,-11.5796,-11.4127,-11.9304,-11.9724,-11.9253,0.71684,0.129054,-12.2103,-11.5102,-0.669014,-10.8011,-0.918008,0.913188,-0.159199,-4.36801,0.924187,-12.212,-11.6488,-11.882,-0.386228,-11.496,-11.7758,-11.2427,-0.351878,-0.767085,-12.3182,-12.2916,-12.4757,0.271343,-11.1619,-0.851603,-0.751704,-12.0184,-0.225312,-11.7228,-11.387,-0.512128,-10.594,0.50795,-11.0175,-12.2483,0.264294,0.611995,-12.334,-0.893485,-0.887824
-0.864249,-0.611401,-3.81995,-11.7343,-11.4766,-12.4692,-10.95,-12.1686,-11.8107,0.827737,-0.385896,-11.5337,-10.6384,0.837696,-12.1524,-0.948989,-0.859979,-0.0688331,-3.99287,-0.0280732,-12.4499,-11.2236,-11.6151,0.6068,-11.6835,-11.3084,-11.6702,-0.547895,0.462042,-11.5628,-11.9522,-10.9401,0.430906,-10.9286,-0.57768,-0.494194,-10.8473,-0.975446,-11.6579,-12.1059,0.838462,-11.0447,0.434375,-10.7819,-11.1518,0.836987,0.786572,-11.0073,-0.226483,-0.343495
-0.493684,-0.138075,-2.87274,-11.1129,-12.0607,-11.7024,-11.8705,-11.1833,-11.2144,-0.854833,-0.643576,-10.6102,-10.8016,0.781009,-10.9924,-0.823641,-0.69845,0.263595,-4.65321,0.188184,-10.8513,-12.4954,-11.8615,0.146065,-10.7282,-12.4649,-11.5661,0.643126,0.626968,-10.7899,-12.2425,-12.4172,-0.357933,-12.2543,0.577692,0.136807,-11.4015,-0.737168,-12.0452,-12.0604,-0.595767,-11.689,-0.567747,-12.3924,-11.8929,0.996316,-0.669867,-11.5901,0.261374,-0.456882
-0.85202,-0.0581069,-4.24212,-11.6996,-12.4265,-12.1127,-11.6081,-11.4398,-12.4595,-0.43976,-0.133558,-12.1414,-11.8452,0.491076,-11.8459,-0.72713,-0.351009,0.849206,-4.23738,0.157402,-12.2003,-11.5954,-12.5196,-0.223621,-11.4323,-11.8581,-11.7666,0.437563,0.648522,-12.5045,-10.5489,-10.7411,0.00232528,-11.9438,-0.356431,0.119763,-11.513,0.579732,-12.3181,-11.4283,-0.865426,-11.452,0.506593,-11.7036,-11.9394,-0.794007,0.0999218,-11.2886,-0.942705,0.652914
-0.594535,-0.62828,-4.23897,-12.109,-11.3566,-10.8277,-11.4221,-10.5828,-11.3757,-0.235035,0.994307,-11.3741,-11.9734,-0.0246975,-10.7811,0.207722,-0.878661,-0.211927,-0.310137,-0.655532,-10.6391,-11.608,-11.1049,0.410222,-10.7679,-12.5017,-10.9196,-0.129367,0.291663,-10.8612,-12.0001,-10.8371,-0.92163,-11.396,-0.866761,0.263503,-11.6825,0.253282,-11.3169,-12.5161,-0.988475,-11.323,0.178857,-11.9531,-12.3209,-0.0587779,0.779874,-12.1973,0.731904,-0.411154
-0.319231,0.604549,-3.31341,-12.4175,-11.4845,-11.2407,-12.3767,-11.8661,-12.3523,0.449822,-0.651884,-11.8033,-11.3833,-0.595028,-10.6655,0.283972,0.6957,-0.271821,-0.56387,-0.0827989,-11.7859,-11.9758,-12.4019,0.932873,-11.3876,-12.1827,-11.6576,-0.0695323,-0.304509,-11.9243,-10.9998,-11.1542,-0.754593,-11.4743,0.500254,0.299099,-12.1774,0.662143,-10.5645,-11.9912,0.105001,-12.2169,0.266546,-12.2692,-11.7841,0.141018,0.535788,-12.0861,0.8719,-0.904663
0.362776,-0.393373,-4.19387,-11.0516,-11.988,-10.7438,-10.6967,-11.1103,-11.7951,-0.450465,-0.946982,-12.2485,-10.6203,-0.713281,-11.1931,0.43089,0.602512,0.717707,0.0310263,0.572659,-12.2902,-12.3427,-10.6589,0.532061,-12.0746,-11.9065,-11.8749,-0.977863,0.094147,-12.0017,-12.4228,-12.0904,0.174298,-11.7627,0.959418,0.739048,-11.954,0.815745,-11.3697,-11.1961,-0.638988,-11.317,0.648159,-12.2537,-11.0132,0.00892117,0.719473,-11.4093,-0.271714,-0.173817
