0.545504,-0.346105,0.431327,0.462009,0.688423,-0.739768,-0.464426,0.401588,-0.579322,-0.0269313,-0.180077,0.122871,-0.405302,-0.108069,0.769588,0.697519,0.136552,0.299723,-0.851666,0.0790665,-1.10227,-0.649098,-0.860408,0.473482,-0.821513,-0.332982,-0.87529,-0.917254,0.862978,-0.698357,-0.109006,0.543353,0.0904084,-0.542808,0.140233,-0.0862969,-0.147705,0.810679,-0.549838,0.407844,-0.0813813,0.404956,-0.334414,0.648188,-0.568242,-0.429955,0.480578,0.703182,-0.995361,0.763783,-0.0828805,-0.96276,-0.750444,0.191583,0.645594,-0.437085,-1.00653,-1.09483,-0.219468,-1.00868,-0.658311,0.806397,0.669545,0.566968,-0.60154,-0.0553506,-0.384457,0.385626,-0.109801,0.200576,-0.0716584,-1.05631,-0.259596,0.728799,0.726748,0.307033,-0.566284,0.342197,0.145086,-0.426774,0.240852,-0.802923,-0.254662,0.625279,0.523531,-0.474197,-0.676935,0.651874,-0.434151,0.238469,0.778065,0.042409,0.179737,0.582481,-0.255751,0.713068,-0.337998,0.494663,0.233566,0.687073,-0.16989,-0.703221,0.765634,0.705385,-0.839551,0.627253,0.14729,-0.270964,0.104322,-0.572752,0.437133,-0.519955,-0.240804,-0.682658,-0.759805,-0.582402,-0.0219837,-0.301869,-0.795657,0.678737,-0.928529,-0.882721,-0.143983,0.386079,0.834632,0.735137,0.234019,-0.368495,0.364671,-0.397544,-0.546551,-0.670348,0.0341058,-0.646046,-0.830092,0.329426,-0.883921,0.45207,-0.806667,0.355272,-0.985812,0.765337,-1.02981,-0.0917445,-0.78245,-0.654746,0.460725,0.330438,0.178256,0.799939,0.144045,0.384598,-0.94791,-0.865066,-0.0944511,-0.978407,-0.995058,-0.725561,-0.21203,0.504483,0.011766,0.37629,-1.03099,-0.819257,0.865116,-0.726214,0.64504,-0.883934,0.860727
-1.18883,0.444134,-1.15229,-1.28862,0.549192,-0.109162,-0.936202,-0.970683,-0.513566,0.529107,0.342444,-0.578755,-0.191976,-0.138086,-0.391794,0.0778287,-1.09767,-0.23533,0.217642,-0.688356,0.687511,-0.143004,0.458281,0.198672,-0.0391263,-1.2261,0.19866,0.369531,0.553807,0.449597,0.365129,0.661922,0.190676,0.509787,0.670245,0.0368145,-0.302429,-0.96901,0.363078,0.480951,-1.14296,0.00246785,-0.800858,-0.0379867,-0.838672,0.104294,-0.663212,-0.639392,-0.83409,-1.14862,-0.0308017,-0.849633,0.00531804,-0.275574,0.645985,-0.736862,-0.204732,0.141591,-1.07039,-0.353979,-0.111866,0.59169,-0.395111,-0.624244,0.398423,-0.42792,-1.29048,-0.60706,-0.0999835,0.36954,-0.829163,0.0540058,-0.331046,-0.333074,-0.687035,0.127228,-0.931835,-0.0533005,-1.21522,-0.468979,0.0950215,0.0509269,-0.0216658,-0.602714,-0.927701,-0.0787344,-0.0426304,0.164513,-0.640197,0.183931,-0.892521,0.544883,0.0725669,0.00931454,-0.782415,-0.232064,-1.12166,-0.775952,0.457822,0.0753037,-1.10947,-1.07439,-0.573744,-0.143565,-0.110523,0.0361671,-0.719391,0.254588,-0.720187,-0.637662,-0.917444,0.67178,-1.28979,0.357836,-0.633988,-0.920544,-0.423952,0.620328,0.540915,0.232797,0.101205,-1.05466,0.0746255,-0.529282,0.251601,0.589156,0.5356,0.426888,-0.88985,0.290368,-0.200862,-0.702369,0.512919,0.52234,0.451012,-0.300658,-0.144547,-0.971433,-0.749124,0.432212,-0.312148,-0.369622,0.400938,-0.304991,-0.71484,-0.936104,0.0714108,0.158154,-1.01883,-0.0907285,-0.312103,0.379321,0.151558,-0.940531,-0.853015,-0.299895,-1.05443,-1.02047,-0.576061,-0.647332,0.566844,0.520023,-0.0527552,0.376709,0.339309,-0.304797,-0.627003,-0.508292,0.0207162
0.0565997,-0.643354,-0.858706,-1.01608,-0.945469,0.133249,-0.433969,-0.584627,-0.498394,-0.978869,-0.306511,0.707823,0.0059746,-0.630243,0.156327,0.36239,-0.186312,-0.846622,0.604907,0.0901646,-0.125737,-0.745479,-0.0460448,-0.308767,0.498712,-0.372389,-0.672512,-0.509139,0.297554,0.116142,0.808523,-0.48468,0.633955,-0.889017,-0.33959,-1.15035,0.405398,0.387606,-0.57381,-0.93183,0.569904,0.280846,-1.06284,-0.262956,0.811768,0.254652,-0.7394,-0.213378,0.569196,-0.973327,-0.962047,-0.395374,-0.55764,0.153074,0.457025,-0.897762,-1.05815,-1.05432,-0.245735,0.400571,0.222987,-0.276046,-0.922943,0.0181074,-0.0038963,-0.101368,0.0289245,-0.437332,-0.552595,0.616281,-0.207997,-0.821525,0.0582922,-0.109672,0.0766848,0.0312265,-0.693854,0.498451,-1.02099,-0.963491,0.68629,-0.821867,-0.197699,-0.710184,0.492373,-0.579509,-0.44678,0.595389,-0.472664,0.468651,0.157126,-1.08851,-0.646228,0.395349,0.0907622,0.511041,-0.544853,-0.719147,-0.765125,0.063718,-0.941701,0.188044,0.403359,0.277758,-0.760461,-0.358791,-0.52985,-0.293149,-0.699174,-0.38967,-0.095474,-0.851718,-0.0503705,-1.13201,-0.400737,-0.396832,-0.55035,0.313649,-0.640276,0.138152,-0.0565332,0.678016,0.210807,0.458405,0.23453,-0.537265,0.130612,-1.14916,-0.0952463,0.526653,0.0757276,0.124219,-0.124136,-0.359748,-0.436857,0.276568,0.442627,0.194459,-0.855414,-1.09538,-1.03404,0.210278,-0.785933,0.0767507,0.239436,-0.0255038,-1.15892,-1.14975,-0.550688,-0.638025,0.14957,0.553944,-0.798844,-0.478457,0.173515,0.596853,0.145444,-0.534707,0.608862,-0.788636,-0.846888,-0.154244,0.496749,0.190142,0.647174,-0.778943,-0.372123,0.250967,0.576682
0.0583447,0.441469,0.82852,-0.570212,0.816702,0.0664364,0.830391,-0.0476357,0.0686873,0.841809,0.562842,0.591828,0.152545,0.277952,0.95415,0.835254,-0.387367,0.712169,0.141864,0.239092,0.482198,0.514393,0.553371,-0.51088,0.172308,-0.0953211,-0.70254,0.554531,0.693721,0.709593,0.292379,-0.211484,0.187512,0.157349,0.254753,0.0406635,-0.739766,0.121594,-0.970523,0.365371,-0.000148169,0.628769,-0.00635135,-0.811154,-0.0568295,-0.0157515,-0.93945,0.592253,-0.267133,0.238863,-0.132205,-0.748486,-0.210294,-0.542384,-0.222916,-1.00154,0.398744,0.110993,0.589445,0.128915,-0.142964,-0.0817267,0.95388,-0.919003,-0.887929,0.245083,0.15811,-0.591245,-0.596874,0.224037,0.810576,0.439428,-0.110745,-0.159326,0.664723,0.868875,0.861372,0.761723,0.497578,-0.369311,0.0370355,-0.598177,-0.081347,0.863191,-0.104112,0.732186,0.898104,-0.668919,-0.120372,0.523998,0.496446,0.773114,-0.521279,0.486775,0.89056,-0.372758,-0.231692,0.0851195,0.0724468,0.207884,-0.654394,-0.0805277,-0.316239,0.27131,0.796596,-0.615066,0.176635,0.694417,-0.816894,-0.289338,-0.638444,0.256591,0.148934,0.316658,0.156232,-0.918729,0.085294,0.0907854,-0.551198,-0.998628,-0.348767,-1.0183,0.810935,0.166404,0.504922,0.737945,0.830096,-0.69032,-0.140486,-0.0610081,0.554013,0.241569,0.894914,-0.725777,-0.450671,0.727959,-0.304394,0.762413,0.458826,-0.0848382,-0.490475,0.856831,-0.791798,0.694909,0.209939,0.400883,0.81263,-0.668317,-0.471882,-0.702119,-0.630496,0.215801,-0.683972,-0.783111,-0.581346,0.8574,-1.00872,-0.714801,-0.796471,-0.112754,0.260641,0.793992,-0.834736,0.192004,-0.895336,-0.248957,-0.0435876,-0.16328,-0.450095
-0.231458,1.10519,0.412733,-0.338177,-0.650163,0.144091,0.908212,0.78717,-0.00682948,1.27634,-0.648263,0.327501,-0.317702,0.603988,0.679979,-0.0643633,1.05909,0.573828,-0.0366308,-0.61926,0.813807,0.887065,0.67783,0.644248,1.08878,-0.0937161,0.785362,-0.123729,0.899146,-0.341468,0.462626,-0.612717,-0.516687,-0.405045,-0.231298,-0.447255,0.458642,-0.603491,1.05951,1.17141,-0.607551,1.13084,0.218504,-0.205657,0.454427,-0.381921,0.449575,0.233114,0.911502,1.13254,0.33345,0.444905,0.7392,-0.269124,-0.191252,0.547574,0.356755,-0.686294,1.14344,-0.0245036,-0.308167,0.325662,0.0823752,-0.105259,0.640212,0.570672,0.167082,-0.181551,0.686777,-0.0538114,-0.290548,0.798821,-0.203372,0.647552,-0.687241,0.97065,0.985227,0.48193,-0.0766404,0.616325,0.334065,0.976405,-0.219175,-0.20714,-0.573124,0.309169,1.06003,0.503226,0.34247,0.923066,1.19832,0.753898,-0.0316766,0.000288944,-0.631765,-0.671869,-0.709443,0.254913,-0.133824,0.696929,0.920697,0.295224,0.215346,-0.56308,-0.337628,0.247701,1.12717,-0.632806,-0.550774,-0.229879,0.703114,0.502887,-0.533879,1.20353,1.01534,-0.387407,0.232299,0.794968,0.835414,-0.705635,0.43763,0.753328,0.767859,1.12555,-0.526787,0.855689,1.17327,-0.516635,-0.169802,-0.240954,0.89989,-0.52951,0.773865,-0.165168,-0.372994,1.15583,0.802128,-0.526233,1.24262,0.97095,-0.0365161,0.665331,0.193433,0.149201,0.588462,-0.071629,0.481389,-0.459644,-0.557065,0.0363988,-0.445683,0.60016,-0.490677,1.04177,0.445304,-0.297869,0.617056,0.338174,-0.0949086,1.16685,0.816816,-0.475423,-0.643066,0.310276,0.0790043,-0.296465,0.185704,-0.399272,-0.103102
0.299315,-0.557332,0.731371,-0.315758,0.355696,-0.399832,0.992299,1.00366,0.801152,1.25225,1.16619,-0.442854,-0.473836,0.485948,-0.213936,1.28753,-0.349152,0.207791,0.624181,0.708617,0.832478,0.510625,0.245028,1.07665,0.587155,1.2749,-0.12475,1.01029,0.1802,0.195574,-0.37322,1.04772,0.206443,0.926353,1.30016,1.13034,1.09472,0.860662,0.702206,0.464076,0.681115,0.436601,0.589423,0.77548,-0.509249,0.943689,0.631211,-0.2902,-0.280318,-0.176406,0.986619,1.12036,0.902421,-0.200151,0.765213,0.0577775,-0.357049,1.20866,-0.363735,0.391353,-0.0275606,-0.168754,0.00727116,0.747084,1.3258,-0.124367,0.445628,0.988724,1.3045,-0.283964,0.021001,0.553813,0.720838,1.17863,-0.102505,0.77979,0.690517,1.09691,1.05779,0.9784,-0.511297,0.612613,0.666963,0.959326,0.980663,0.000376928,-0.414695,1.19182,-0.222757,-0.210228,0.15137,0.317884,0.189219,0.726843,-0.36683,0.0832213,1.17068,0.646999,-0.359853,1.04338,0.931236,0.229349,0.165391,0.220276,-0.023823,0.631087,-0.431732,1.2349,0.296197,1.19426,0.781497,0.353102,0.375076,0.0166619,-0.119371,-0.0760592,0.58524,0.0341361,-0.316042,0.930685,0.392109,0.40353,-0.18323,1.14953,-0.301426,0.0181413,-0.199047,-0.562546,1.23334,0.00930159,1.04903,0.73278,0.806853,-0.217375,-0.478743,1.35123,0.981913,-0.342273,1.15433,-0.153688,1.42019,0.504028,0.767615,0.363468,1.08889,1.21645,0.85561,0.242333,-0.181216,1.10777,-0.258781,0.779095,0.0795017,0.126191,0.496827,0.346278,0.712534,0.865982,0.351933,0.514078,-0.556515,-0.0308332,-0.184941,0.818539,0.319993,-0.0954821,0.737972,-0.129892,0.130446
0.425197,0.249317,0.0835341,-0.502573,-0.414866,1.0152,1.15452,1.36978,0.439016,-0.0349461,-0.243233,0.114987,0.274475,1.10406,0.762691,0.968868,0.169091,-0.32283,0.249603,-0.396725,0.597305,1.33188,-0.385039,1.13467,-0.284857,1.0017,0.0228681,0.187862,0.307875,0.461178,0.886511,1.33658,1.314,-0.426449,-0.562489,-0.497359,1.19226,1.19554,-0.524072,0.234782,-0.235904,-0.163799,0.953275,0.642077,-0.45623,0.319472,0.21445,0.316367,0.600148,1.06756,0.523148,-0.199041,1.00295,0.741614,-0.460862,1.3216,0.346822,0.165512,0.112965,1.2582,1.2302,-0.397019,1.19829,1.1477,-0.219962,1.2393,1.25385,-0.424196,1.03835,1.33328,0.414092,-0.594053,-0.22701,-0.029127,0.65153,-0.0797341,0.893851,-0.530514,0.840139,0.0975046,1.14055,-0.0332076,0.501969,0.747004,1.31191,0.644613,0.672107,0.26224,-0.586369,1.38858,0.123949,1.24733,-0.404936,-0.0742583,0.998542,-0.021392,-0.231449,0.855897,0.157918,-0.589598,0.792687,1.17552,-0.580145,1.16918,-0.250105,0.674891,-0.307045,1.24725,0.747883,1.1366,-0.051738,0.49194,-0.293102,1.05374,-0.15755,-0.377684,0.301856,1.11806,0.488063,0.318994,1.11015,1.21552,0.169833,1.30872,-0.255234,-0.22812,-0.10917,0.116823,1.23128,0.652254,0.130731,0.627476,0.431276,0.154092,0.400165,0.784676,-0.567511,0.696625,0.635434,0.783878,0.436731,1.1872,-0.120676,0.747134,0.844445,0.32528,0.972957,-0.250193,0.0468482,0.0645256,0.672306,-0.2395,-0.116451,-0.554355,-0.327278,0.231821,-0.178969,0.167057,0.952149,-0.344179,-0.577183,-0.313614,0.886803,0.457598,0.443985,-0.109526,-0.154219,0.47998,1.1906
1.13463,-0.082728,0.280749,0.925335,0.400102,-0.368611,0.373286,1.32889,1.20785,0.726599,-0.0207582,-0.124116,0.00241112,0.343248,0.362939,0.0515621,0.619475,1.19827,0.476099,1.39004,0.753921,0.735426,1.41636,1.04381,0.225735,0.477465,0.0913043,0.719715,0.926752,1.17479,0.513825,0.614978,-0.354339,1.34817,0.0939115,0.599361,-0.46684,1.0208,0.481846,1.29461,0.300992,1.01469,-0.275908,0.857002,-0.0884681,0.640629,-0.537838,1.08461,0.392493,0.49186,1.02824,-0.299988,-0.219116,0.998201,1.29742,0.560217,0.0292644,-0.0576735,-0.16647,-0.490385,-0.329285,0.900953,0.678191,-0.130026,0.802724,1.3257,1.02293,0.889482,0.900094,0.0583768,0.73769,-0.245315,-0.373339,1.01538,1.16528,0.0917913,0.209607,1.18104,-0.270005,1.1557,0.226503,1.31183,1.40931,0.560985,0.863633,1.26033,-0.3252,-0.553504,-0.243745,0.0619283,-0.490292,-0.0194317,-0.48352,0.741497,0.40414,0.872802,0.620796,-0.0193294,0.315882,0.0744882,0.592646,-0.39283,0.382771,0.772905,1.17615,0.101654,1.41829,-0.0606469,-0.163703,-0.298113,-0.351351,0.616398,-0.43268,-0.388444,-0.269019,0.984551,1.42548,-0.0406211,0.984645,-0.264662,0.574905,1.04795,0.269504,0.644983,0.343046,1.22724,0.0713831,-0.48256,-0.238489,0.940863,0.145527,0.907755,1.10163,1.0819,0.234258,0.831377,-0.262852,0.206151,1.32433,0.127043,0.461636,-0.473424,1.29704,0.582554,-0.30827,-0.418383,0.120703,-0.329187,0.0945945,-0.341054,-0.0402515,1.2231,1.26049,0.782851,0.421679,0.157139,0.563691,1.04666,0.228178,0.878801,0.541122,0.927303,0.340154,0.196351,0.562797,1.12801,-0.418674,0.853543,-0.112241
-0.890704,-0.815773,0.553036,-0.81053,1.03486,-0.310812,-0.565202,-0.82992,0.363489,-0.340791,-0.181728,0.576033,0.172555,-0.405031,0.390126,-0.490996,0.570246,-0.899137,0.626294,0.170505,-0.117361,0.0586928,-0.734775,-0.63646,0.952445,0.015174,0.479935,0.634053,0.150099,-0.112923,1.07541,0.16295,-0.0251408,0.532002,0.255975,-0.0867213,-0.875255,0.594329,-0.0130861,0.391789,-0.842907,0.708742,-0.128623,0.233203,-0.792734,-0.834942,0.645763,0.681067,-0.830523,0.175612,-0.244872,-0.0443288,-0.862139,-0.0760918,0.222767,0.993861,0.842638,-0.393743,0.531469,-0.103708,0.396889,0.510435,0.962797,-0.724696,-0.054008,0.122327,0.0921382,-0.0257076,-0.379789,0.982607,-0.730363,-0.319141,0.594905,0.0445697,0.817618,0.705726,0.113183,0.366937,0.290349,0.186215,-0.553895,0.949032,1.04544,-0.512479,-0.223504,0.171764,-0.615063,-0.477311,0.681577,0.819962,0.322536,-0.0179782,0.233953,0.188888,0.160881,1.0835,-0.785229,-0.843425,-0.0386522,-0.261462,1.04274,0.13454,0.322953,0.541198,1.08267,0.0441264,0.150479,0.0994041,-0.685381,-0.655616,-0.810825,-0.335721,-0.803029,-0.861828,0.0553547,-0.122978,0.213492,0.343847,0.303267,-0.201376,0.0673647,-0.470642,0.684202,-0.795127,0.621802,-0.251362,-0.808072,0.740129,-0.191231,0.0568313,-0.617778,-0.244938,1.09493,0.60873,-0.800185,1.08115,-0.443588,0.25385,0.0841072,-0.225414,0.501788,0.176838,0.34242,0.602315,0.218565,-0.69867,-0.617107,-0.664387,0.548733,0.589715,0.0377927,-0.480347,1.02263,-0.37445,-0.371919,0.547986,0.277743,-0.276435,0.19167,0.990067,0.683951,0.477448,-0.351316,0.682434,-0.0102662,-0.247945,0.667137,0.449701,0.90946
-0.798249,-1.32521,-0.138246,0.282144,-0.0792304,-0.632375,-0.595736,0.125655,-0.345927,-0.356567,-0.422056,-0.852656,0.584781,0.00115238,-0.926472,-0.886114,0.532789,0.525069,0.295185,-0.840091,-0.379705,0.188807,-1.25258,-0.998701,-1.25895,0.333405,-0.105412,-0.603343,-0.0959022,-0.752155,-0.790328,0.462453,-0.720756,0.428031,0.101201,0.556618,-0.84774,-1.13793,0.0388775,0.162938,-0.137893,-1.02657,-1.33311,-0.196508,0.331183,-0.902982,0.273983,0.220576,-1.02131,-0.0742282,-1.26291,-0.0444077,-0.528816,-1.15889,0.313496,-0.431165,0.531121,-0.435312,0.322097,-0.208177,0.169138,-1.11163,-0.38912,-1.19501,-1.32699,-0.931314,-1.28179,-0.818126,-0.71264,0.11369,-1.29858,0.506071,0.443721,-1.27509,-0.333832,0.131508,-0.82147,-0.703245,-0.291311,-0.486173,0.579132,-0.197617,-1.17398,-0.59308,9.84153e-05,0.496124,0.33236,-0.112176,-0.582583,0.011061,-0.963749,-1.05684,0.256039,0.00373569,-0.89525,0.285653,0.429026,-0.820437,-1.17587,-0.92701,-1.35014,-1.11785,-1.06433,0.450183,-1.03634,-0.0415611,-0.0617051,-0.5012,0.611799,-0.996412,0.369231,0.547535,0.162576,0.55186,-0.688941,-0.480721,0.404588,-0.999977,-1.23629,-0.82139,0.367689,-0.843438,-0.521626,-0.0196674,0.516903,-0.060271,-0.37741,0.302533,0.475896,-0.196674,-1.26787,0.482358,0.042084,-0.975602,0.289146,0.362353,0.339442,-0.415955,-0.782243,0.307845,-0.0557623,-1.05641,0.211985,-0.536582,-1.14794,-1.12035,0.339301,0.61325,-0.763724,0.459613,-0.851535,-1.03943,-1.02722,-0.0165564,0.297507,-1.15371,-0.720223,-0.723299,0.505424,-0.887722,0.436632,0.594156,-1.04876,-0.164679,-1.02484,0.596991,-0.445721,-1.32879,-0.462359
0.239515,0.44653,-1.05064,0.539713,0.0151188,-0.23062,0.748375,0.251372,-0.534714,0.71823,-1.15575,-0.718497,-0.776701,-0.838574,-0.389113,0.563347,-1.18446,-0.186222,-0.800271,-0.551157,-0.324193,-0.331389,-0.75792,-0.373433,-0.023543,0.434006,-0.041669,-0.0699473,-0.655111,-0.0138592,-1.1757,-1.16987,-0.3216,-0.980615,0.615577,-1.06075,0.0344954,0.609682,0.43635,0.745511,0.573641,0.526332,-0.727256,-0.95733,-1.06651,0.129361,-1.14825,-1.00524,-0.811131,-0.702794,-0.310671,0.110406,0.211547,0.177139,-1.0173,-0.566266,-0.143126,0.186764,0.609516,0.447493,-0.581366,0.679544,0.523357,0.342764,-1.05534,0.384664,0.527743,0.224884,0.240075,0.209823,0.216125,0.0594465,-0.0181153,0.734599,0.347847,0.161103,0.10969,0.445324,0.401588,0.544289,-1.01174,-0.663353,-0.0995749,0.445536,-1.24048,0.128858,-0.875,-0.13788,-0.438649,-1.01975,-0.444657,0.225716,-1.09448,-0.675571,-0.18579,-0.904091,-1.04518,-0.412318,0.566523,0.440628,-0.956765,0.0283782,-0.254195,0.270849,0.00870726,-0.660619,-0.322318,-0.635873,-0.969566,-0.675,-0.845853,-0.735577,-0.0926239,0.300301,-1.04431,-0.0873787,-0.325111,-0.673581,-0.979529,0.48197,-0.447605,-0.178457,-0.0465844,-0.296355,0.391702,-0.986645,0.0452832,0.592255,-0.153233,-0.142464,0.278613,0.135732,-0.868356,-0.729853,-0.347689,0.386081,-0.144742,0.575722,-1.00406,0.131422,-0.853548,-0.604186,0.641575,0.299558,-1.05815,-1.15701,-0.542091,-0.137536,-0.584857,-0.275891,-0.409836,0.213267,-1.20862,-1.21069,-0.837358,0.428814,-0.951605,0.453655,0.266799,0.140891,-0.44308,-0.208859,-0.477647,-0.0657059,0.307018,0.420394,-0.433895,-0.591994,0.241846
0.117454,-0.905161,0.943708,0.758998,0.982144,0.488996,0.946573,-0.929133,-0.807366,0.0547673,-0.26826,0.162473,0.890661,-0.809263,0.199585,0.925701,-0.400892,-0.125871,-0.780175,-0.701507,-0.613343,0.606447,0.101143,0.423528,-0.625471,-0.718834,-0.0237237,1.04065,0.093001,0.630012,0.528228,-0.853497,0.6609,0.407985,0.84155,0.579092,-0.16697,0.724172,0.586009,-0.0382871,-0.285012,-0.746203,1.06023,-0.458302,-0.619417,0.195869,-0.596552,-0.0842602,1.00605,-0.440678,0.150281,-0.671248,-0.898183,-0.812528,0.688328,-0.587605,-0.595312,-0.399347,-0.610904,0.433737,-0.833286,0.853373,0.516289,0.763663,0.197407,0.293888,0.278804,0.966485,-0.0458915,-0.199138,-0.135753,0.605145,-0.00929237,-0.139469,-0.917108,0.307339,0.992448,-0.577612,-0.840872,0.934543,-0.0822415,0.245457,-0.800657,-0.0443757,0.368979,0.82372,0.304068,0.709715,-0.639577,0.629213,0.0795008,-0.536814,0.418635,-0.468161,-0.837102,-0.44791,0.761776,0.377751,-0.545376,-0.348067,-0.885339,0.25492,-0.806874,0.0414175,1.0515,-0.787933,-0.715195,0.979996,-0.429497,-0.620018,0.850587,0.424311,0.561488,0.98598,-0.684016,-0.133485,0.745749,0.5561,-0.487721,1.04222,0.121362,0.527828,-0.558545,-0.523955,0.995716,-0.459599,-0.0358155,0.69354,0.8542,0.354857,-0.718478,0.90491,-0.454174,-0.589303,-0.117624,-0.466626,-0.441188,0.103231,-0.550582,0.0653644,0.419261,-0.763945,-0.574276,-0.0832023,-0.841917,-0.322244,0.719362,0.83988,-0.830095,-0.832311,0.818149,0.227316,0.631566,-0.804348,0.63941,0.563331,-0.327898,-0.460357,0.19292,-0.537649,0.830549,0.41049,-0.69669,-0.687576,0.757236,0.121735,-0.218154,-0.747903,-0.838985
0.265082,0.351278,0.614093,0.437185,0.71305,-0.533061,0.531316,-0.673145,1.12235,0.307245,-0.567191,-0.773913,0.0614433,0.596173,0.793702,0.193144,0.171631,0.293081,0.801295,0.647323,-0.57795,-0.800305,0.413921,0.768588,-0.560946,0.662394,0.461873,0.496838,-0.619711,0.650018,0.593902,0.483651,-0.160424,0.0462751,-0.240884,-0.609093,0.351495,1.12871,-0.443957,0.312125,0.274239,-0.172868,0.376493,-0.826037,-0.738415,0.00847533,0.205388,0.271497,1.13984,-0.155036,-0.242899,-0.599833,-0.11706,1.0093,1.00704,0.160275,0.509977,0.307189,-0.504606,0.728546,-0.204512,0.927576,0.0504777,0.473345,-0.187868,0.647875,0.702533,1.00191,0.614869,1.09686,0.152313,-0.272611,-0.237731,-0.632914,-0.260367,-0.137866,0.213842,0.783301,0.971912,0.19196,-0.533454,-0.432706,0.430407,0.187767,-0.585123,0.275724,-0.813678,0.763135,-0.578806,-0.480004,0.329962,0.0549627,-0.714147,-0.78128,-0.633412,-0.0637352,0.704875,0.907402,-0.223548,0.158025,0.842538,0.767045,0.723694,-0.556913,0.972412,-0.698393,0.143502,0.0245343,0.923189,-0.0463047,1.05477,-0.771984,0.35927,0.323462,0.254063,0.612428,-0.562533,0.278666,0.213843,-0.303058,0.636942,-0.617914,0.590185,0.761075,-0.560913,0.795054,-0.464379,0.982243,0.540736,0.150354,-0.0214523,0.221555,-0.24432,-0.459478,0.502923,-0.433628,-0.31959,-0.515294,0.429187,-0.558121,0.276682,0.322242,-0.491824,-0.525767,-0.516015,0.600519,0.924941,-0.240267,-0.282535,-0.022935,0.294956,-0.807312,0.197431,-0.276578,0.792044,0.474798,-0.643244,-0.834054,0.295322,0.735773,0.15458,1.11215,-0.20439,0.74854,-0.509047,1.13681,1.15319,0.00964285,-0.540199
-0.226706,-0.357564,-0.0726029,-1.06618,-0.0111075,0.23991,-0.743918,-0.572308,0.00313212,-0.145904,-0.0165617,-1.18152,-1.01267,0.0144071,-0.14581,-0.450966,-0.355268,-0.832731,-0.255929,-0.351042,0.300871,-0.681875,-1.35818,0.251301,-0.0479847,0.228639,-1.41947,-0.0728905,0.220112,-0.571542,0.225191,-0.520946,-1.44346,-0.361765,-0.101483,0.0310805,-0.636208,-1.35975,-1.05558,-1.14743,-0.0200105,0.413505,-0.843304,0.452969,-0.0864408,0.496533,-0.51235,-0.956062,-0.850552,-1.28263,0.178543,-1.06403,-0.47886,0.306008,-1.32709,-1.0412,0.0202943,-1.2609,0.371559,-0.273946,-0.3468,0.0823966,-1.30925,-0.304612,-0.793722,0.0749187,-0.787884,0.0557175,0.200812,-0.357817,0.393936,-0.333551,-0.458665,-0.963721,-0.394936,-1.05946,-0.981542,-1.42164,-0.529874,-0.346446,-1.21862,-0.865684,0.0751666,-0.211837,-1.07403,0.233728,0.232613,0.431913,0.45847,0.0898186,-0.356386,-0.402683,-0.342138,-0.179985,-1.22165,0.349787,-0.619419,-0.523885,-0.108848,-0.93296,-1.39606,-0.229265,0.219136,-0.369073,0.292661,-0.690153,0.0571146,-1.20323,-0.626144,-0.987112,-0.0640331,-0.359121,-0.367149,-0.503219,-1.08531,0.0444692,-0.783845,-1.36705,-0.0379711,-0.839728,0.208414,-0.90871,0.243237,-0.648077,0.396952,0.507236,-0.812642,-0.736821,-0.531002,-1.43584,-0.184134,-0.44141,-0.179462,-0.479351,-1.32484,-0.401154,0.316144,0.217926,-0.118741,-0.824354,-1.28354,-0.697127,0.302172,-0.165042,0.285301,-1.29749,-0.634926,-1.0129,-1.1789,-1.18725,-0.366978,-1.48484,-0.610313,-0.638094,-0.647266,-0.727715,-0.645211,0.0257389,0.0211113,0.309435,0.0755425,-0.677375,-0.646328,-0.618272,0.328921,-0.485517,0.466221,0.130711,-0.781944
0.61001,-0.431113,0.197046,-0.60147,-0.643294,-0.48235,1.16948,-0.455139,0.368372,-0.357772,-0.148389,0.666769,0.760897,-0.147578,-0.457898,-0.39155,0.690803,0.300034,0.448887,0.202189,-0.193207,0.243968,-0.236621,0.615064,1.08329,0.630754,0.429632,0.0834175,0.582622,0.0459901,0.78712,-0.098604,0.323642,-0.30707,0.00869061,0.389112,-0.0806555,-0.113067,0.642737,0.99648,0.237925,1.20311,0.372013,-0.292413,-0.235702,0.62288,0.0248014,1.16387,-0.368322,1.18245,0.0748189,0.147235,0.135185,0.546962,-0.528937,-0.0727634,-0.11352,0.609459,0.719418,1.17787,-0.635787,0.215303,-0.211974,0.396619,0.616997,0.505481,-0.505505,1.24511,1.10118,0.845996,0.95035,0.0478671,0.757872,0.031127,0.464218,1.23093,-0.637229,1.19778,1.10356,-0.296787,1.089,-0.112853,0.559212,-0.0670507,1.14287,0.739039,0.56895,-0.261883,0.0572626,-0.00286745,-0.375253,0.13024,0.921199,0.121537,1.23562,0.24696,-0.664218,-0.561117,0.200829,1.14572,0.993644,-0.140057,-0.0976451,0.46028,0.599835,1.07534,0.399979,0.671369,0.981885,0.212307,1.08335,0.779649,0.808218,0.351323,-0.578637,0.659855,-0.200874,0.699077,1.10674,0.565153,-0.595026,-0.559753,-0.595843,1.03494,0.270548,-0.651455,-0.00933837,0.315093,-0.503807,0.900255,0.169581,1.1986,-0.531037,0.7807,0.367645,0.777562,0.564801,-0.523612,0.157695,0.255451,0.397459,-0.0501939,-0.256136,-0.0855595,1.00989,-0.126009,1.28306,-0.482217,1.28183,1.09856,0.7917,-0.604429,1.24757,0.904622,1.13927,0.226882,0.961931,-0.161302,1.25074,1.16689,-0.552282,0.129085,1.07425,-0.374555,-0.381451,0.150663,1.11177,0.892115,0.335815
-0.69467,-0.81657,-1.23086,-0.0360994,-0.363941,-0.607657,-0.317442,0.218814,-0.615833,-0.0908948,0.209411,-0.808509,-0.59043,0.313746,-0.852175,-0.977044,0.161782,0.0834717,-1.30635,-1.29076,0.0429757,0.569304,-1.13427,-1.11918,0.352322,-0.800065,-0.791862,-0.788251,-0.97953,-1.19098,0.256329,-0.292536,-0.625888,0.407131,-0.946972,0.391834,-0.818862,0.11725,-0.00768779,-0.0530315,-0.591981,-0.416613,0.520123,0.199253,-0.721204,-0.950388,0.603873,-1.17776,0.514748,-1.32081,-1.08685,-0.0606125,-1.36984,-0.83946,0.201876,0.364143,-0.257861,-1.20832,-1.04244,0.144273,-1.01764,0.595549,-0.766599,-0.261864,0.384344,-0.331907,-0.488366,-1.05285,-0.832993,-1.11439,0.275778,-0.04331,-0.149339,0.177565,-0.462393,0.511122,0.608841,-0.476856,-1.28497,0.505253,-0.416004,-0.990157,-0.173695,-0.404183,-0.447953,-0.590155,-0.658376,-1.32415,-0.416812,-0.319156,0.201787,-0.0527878,-0.341943,-1.18315,-0.932988,-0.575935,-0.133392,-0.0396893,-0.247126,0.415279,0.227585,-0.589684,-0.246367,-0.540089,-1.03045,-1.3271,-0.647304,-1.03995,-0.422289,-0.550612,-1.15303,0.543371,-0.159105,0.0549361,-0.479148,-1.22539,-1.15355,0.244139,-1.16788,-0.188703,-0.693353,0.41557,-0.859827,0.346368,0.614085,-0.411151,-0.847904,-0.137643,-1.06918,0.286634,-0.3407,0.540073,-0.921385,-1.2054,-0.618353,-0.570176,-1.15084,0.116008,-0.228462,-0.191461,-1.05294,0.000169624,-0.266426,0.169619,-0.56323,-1.36391,0.325888,-0.335121,0.261894,0.539671,-1.14216,-1.0498,0.336906,-0.620324,-1.32176,0.332655,0.350189,-0.788003,-0.423324,-1.33732,-1.11971,0.617639,0.584414,-0.659427,-1.2061,-0.652275,0.152061,-0.975272,-1.1546
-0.311475,0.598192,-0.442618,-0.929642,-0.28657,-0.891335,-0.111208,-0.268816,0.816217,0.935334,-0.625258,0.737552,-0.825162,-0.29339,0.456122,-0.0638224,-0.233489,0.17044,-0.331969,0.360171,-0.87122,-0.287628,0.62213,-0.871917,-0.32155,-0.655633,-0.696353,0.407839,0.878092,-0.289961,0.6349,-0.43498,-0.693367,-0.809316,-0.36622,0.0184659,-0.702248,0.520974,0.748053,-0.887629,0.454711,-0.878803,0.848325,0.627951,-0.17379,0.302849,-0.437469,0.591123,-0.528308,0.228964,-0.050303,-0.401125,0.939739,-0.42977,-0.27464,-0.383409,-0.0870005,0.02741,-0.977168,-0.210506,0.735851,0.656134,0.352916,-0.959113,0.845221,0.985099,0.057755,-0.858625,0.504476,-0.19579,-0.747852,-0.0424107,-0.0761901,-0.901125,-0.416057,0.748422,0.400127,0.144877,0.337948,0.870222,-0.627757,-0.713952,-0.532501,-0.689616,-0.14532,0.191262,-0.0746226,0.766082,-0.782926,-0.0533884,-0.446021,0.951328,-0.398852,0.905297,0.990617,-0.555229,0.888799,0.0467741,-0.415452,0.391677,0.849387,-0.164902,-0.652331,-0.228401,-0.0676237,-0.069986,-0.481576,-0.669094,-0.926707,0.854775,-0.80047,-0.556061,-0.860775,-0.334569,-0.247274,-0.00769326,0.855096,0.676505,-0.243209,-0.929428,-0.378481,0.309172,-0.979698,0.22107,0.212872,-0.990678,0.664243,0.100073,0.0544981,-0.752806,-0.509848,-0.0977126,0.0806947,-0.163777,0.672289,-0.988527,0.76464,-0.810885,-0.659218,0.836335,-0.957708,-0.461286,-0.721324,-0.820081,0.202548,0.0298041,0.170629,0.0560465,-0.295288,0.925822,0.125021,0.324634,0.233396,0.143726,-0.455894,-0.55533,0.15145,-0.793248,0.543145,-0.795649,-0.547652,-0.9683,0.10504,0.531445,-0.133675,-0.224268,0.541321,-0.370633,-0.0367503
0.46218,-0.954221,-0.41438,-1.0007,-0.677142,-0.236059,0.200248,0.351065,-1.06703,-0.745303,-0.945821,-1.1428,0.378121,0.377215,0.0889955,-0.479751,-1.08028,0.532068,-1.3299,-0.875122,0.0736156,-1.12715,-0.424372,0.103718,-0.0237023,-0.894524,-1.03155,-1.24957,-1.3548,-0.403785,-0.287916,0.524107,0.0587216,-1.28557,-1.05987,-1.20169,-0.1049,0.557108,0.566099,0.2448,-0.771468,-0.962995,0.518724,-0.97662,-1.16905,0.0244473,-0.0396428,-0.832601,-0.0267572,0.0471865,-0.290996,-0.536414,0.336769,-1.29864,-1.01597,-0.270206,-0.776437,-0.630796,-0.103047,-0.71451,0.382146,-0.974235,-0.773676,-0.142405,-0.843077,-0.416816,0.0726292,0.468751,-0.442981,0.0554556,0.130278,0.202279,0.509188,0.0657302,-1.35761,-1.24314,-0.493095,0.0194713,-0.65901,-1.10312,-0.516615,0.466721,-0.222812,-0.763119,-1.41519,0.177947,0.383403,-0.774902,-1.03612,-0.302917,-0.0726846,-1.23725,0.139576,0.570367,0.0370731,-1.28677,-0.429721,-0.47357,-1.4013,0.544025,-1.00139,0.14571,0.163031,-1.07547,-0.371832,0.222146,-0.901881,0.551801,-0.341656,-0.144163,-1.1346,0.558457,-0.260715,0.0593191,-0.787934,-0.25918,-0.346007,-0.987804,0.382646,0.0345986,0.126007,-0.273311,0.214077,-0.31769,-0.286216,-0.332122,-0.187736,-1.29921,-1.38897,-0.172304,-1.33846,-0.973625,-0.609866,0.241302,-0.632369,0.435029,-0.119825,-0.117522,0.403557,-1.04475,-0.844958,-1.31431,-1.06957,0.311054,0.161734,-0.440776,-0.531398,-0.767545,-0.0118525,-0.732024,-1.31622,-0.469118,0.411392,0.314586,-1.37008,-0.458097,-0.600809,-0.14109,-0.340579,-0.573047,-0.896667,-0.262309,-0.129945,-0.0898059,-0.60428,-1.34559,-0.238049,-1.30738,-0.0463809
-0.275152,-0.792792,0.668001,-0.172737,-0.445633,0.395783,-0.594275,0.530318,-0.718887,0.0549081,-0.0648069,-0.0341842,0.155417,-1.1172,-0.206065,-0.11327,-1.07055,-1.24743,0.702648,0.205086,-0.171285,-0.453671,0.725146,-1.01687,-1.16689,0.0520676,-0.20442,-1.09575,-0.769254,-0.0950704,0.274599,0.229709,0.386253,0.216715,-0.668913,-0.785266,-0.113387,0.0109272,-0.980833,0.441841,-0.66005,0.228475,-0.318229,-1.23052,0.385392,-1.25018,-0.0696733,0.588955,-1.2235,-0.0929101,0.068156,-0.120668,-1.27247,0.0674169,0.13658,-1.16524,-0.606401,-0.793725,-0.986872,-0.10154,0.38532,0.561842,-0.597716,0.0456873,0.0526724,0.0074856,0.534536,-0.7866,-0.707472,-1.17218,-1.07064,-0.0934074,0.330409,-0.114758,-0.0498108,-0.0100842,-0.0908218,-0.845369,-0.147014,-0.0402041,0.335836,-0.804743,-0.886757,0.337484,0.536789,0.523938,0.446359,-0.795497,-0.995672,-1.2664,0.377078,0.663762,0.569559,-0.946523,-0.0164357,-0.103654,0.335077,-0.207784,0.383861,-1.09828,-0.105851,0.587332,0.0824271,-0.501327,-0.253311,-0.693269,-1.2373,-1.07002,-0.264523,-0.110196,0.163892,-0.654573,0.359176,0.55125,-1.04297,0.17008,0.349303,0.6775,0.648698,0.627745,0.685217,0.299891,0.565622,0.52889,0.627482,-0.176698,-0.300649,0.236674,-1.11037,-0.642673,0.412509,0.0578961,-0.781226,-0.23095,-1.16932,0.239578,0.349896,-1.1325,0.443674,-0.640512,0.031421,-0.118318,-0.0209696,-0.335288,-0.292953,0.210172,-0.891093,-0.669535,0.161787,-0.968281,-0.767675,0.121118,0.605724,-0.927938,-0.0758768,0.507321,0.169479,-1.10241,0.0181102,0.333226,-0.470968,-0.295266,-0.334763,0.0219209,-1.2521,-0.229965,-0.464386,0.37191,-0.0883482
-0.472092,-0.719982,-0.508308,0.683704,0.533163,0.430519,-0.335134,0.0174498,0.813541,0.269445,-0.546649,-0.880625,0.775885,0.848584,0.999214,-0.877938,0.0468222,0.78065,0.565656,0.218526,0.0728751,0.172996,-0.978327,-0.948276,-0.887652,0.317709,-0.926263,0.156498,-0.872563,0.719762,-0.657735,-0.345045,0.999391,-0.166433,-0.661731,0.532164,-0.736304,0.00274521,-0.450776,-0.923153,-0.728199,0.00218535,-0.804168,-0.952704,-0.14962,-0.805344,-0.831031,0.896812,0.974916,0.734235,0.114949,0.0474015,-0.0931587,0.136232,0.0987353,0.0187994,-0.546449,0.172083,-0.825093,-0.419402,-0.108545,-0.483218,0.235163,-0.109544,0.349959,0.573042,-0.577769,0.613266,-0.424602,-0.0289353,0.689724,-0.153192,0.97286,0.885166,-0.106285,-0.17715,-0.920568,0.0622935,-0.280728,-0.946042,-0.203862,0.833831,0.10097,0.70259,-0.0303275,-0.800684,-0.279001,0.422833,0.371008,-0.104483,-0.996959,-0.737926,0.411909,0.237814,0.152141,-0.238521,-0.189533,0.573981,-0.625645,0.385474,-0.455344,-0.936311,-0.768107,-0.482874,0.948465,0.125218,0.339587,-0.972493,-0.812878,-0.941531,-0.918925,-0.01713,0.89191,0.181655,-0.31493,-0.138808,0.380581,0.405679,-0.716364,-0.2488,-0.699194,-0.713713,0.012884,0.712326,0.523712,-0.835365,-0.526585,-0.666211,0.738226,-0.15262,0.718873,-0.717508,-0.0893211,0.950376,-0.200771,-0.141246,0.0752044,-0.861574,-0.114129,0.261936,-0.803495,-0.033444,-0.755584,-0.911975,-0.852178,-0.0709037,-0.0511727,0.528013,-0.665614,0.232073,-0.721177,-0.365198,0.517971,0.291317,-0.653262,0.0412928,0.455562,-0.180237,0.374692,0.193398,0.666753,0.093175,0.4755,-0.422958,0.0431615,-0.72566,0.435406,-0.882024,-0.587625
-0.681186,0.377449,-0.393583,0.28498,0.621476,-0.305948,0.432412,-0.449818,0.64249,-0.0399653,-0.115822,-0.125827,0.238468,0.518591,-0.608246,-0.470605,0.864939,0.432657,0.984567,-0.315688,-0.193041,0.177575,-0.649324,0.899744,-0.347315,-0.0726721,-0.0574843,-0.0733649,-0.637656,0.0601019,0.338621,-0.317159,-0.560766,0.946721,0.969504,-0.937607,-0.357544,0.403599,-0.385741,-0.713371,-0.634684,0.50012,0.162485,0.605467,0.020394,0.555923,-0.863455,-0.112984,-0.00973723,-0.877206,0.573012,0.798905,0.302052,0.92537,0.700332,0.956421,-0.145619,-0.35547,-0.115261,0.218408,0.706315,-0.774958,0.902932,-0.852767,-0.826553,0.874119,-0.788691,-0.182414,0.2794,-0.172749,0.105898,0.6464,-0.670946,-0.729933,0.25355,0.351131,0.827672,0.391777,-0.76017,-0.180382,0.516254,0.814525,-0.379794,-0.180011,0.741578,-0.677779,-0.221907,-0.402358,-0.031566,0.664515,0.817733,-0.323568,0.89124,0.722348,-0.174652,-0.93363,0.59815,0.0383401,-0.114361,-0.120766,0.867274,0.99322,-0.472684,-0.801989,-0.73503,0.782549,0.550825,-0.905675,0.176009,0.792338,-0.0843738,-0.306054,0.608546,0.537515,0.515619,0.351807,0.861419,-0.704606,0.951132,-0.168464,0.961592,0.770549,0.509651,0.854515,0.49458,-0.663318,0.922567,0.0944132,0.376705,-0.190111,0.97533,0.245662,-0.195208,-0.495671,0.445356,0.0714447,-0.711439,-0.00213624,0.167453,0.466253,-0.208115,-0.915238,-0.838118,-0.597886,0.62396,0.679184,0.755604,0.487062,0.976261,0.708419,-0.67972,0.939536,0.480651,0.831614,0.795734,-0.023086,-0.830021,0.719985,-0.92699,0.548367,-0.468443,-0.949977,-0.204288,0.338032,-0.443965,-0.757249,-0.588841,-0.15372,0.242298
0.753538,-0.512541,-0.790891,0.839983,-0.348976,-0.387094,0.465626,-0.668109,-0.629807,-0.0456294,-0.690164,1.0803,0.276334,-0.748945,0.562629,0.109631,1.04847,-0.458774,0.281293,0.77014,-0.38408,-0.168657,-0.69662,-0.332374,0.628738,0.643095,0.225344,0.873172,1.05594,1.07331,0.117153,0.637915,-0.610794,0.154702,0.306338,-0.13133,0.596047,-0.399596,0.0290009,0.79468,0.383215,0.167277,0.703415,-0.512012,0.246771,0.0944847,0.426059,0.123684,0.464151,-0.464208,-0.277736,0.90851,0.195575,-0.145917,-0.595424,-0.347247,-0.674382,0.45836,-0.645635,-0.790005,0.360107,0.299958,0.67635,0.577752,-0.7169,-0.188872,-0.725138,0.707587,0.239972,0.132303,0.330707,-0.548373,1.12802,-0.137438,-0.231945,0.20323,0.785487,1.02255,1.15535,0.0780774,-0.613214,-0.293942,-0.184972,0.410802,0.388581,0.0480436,0.891995,0.542639,-0.665156,1.0748,0.581073,0.52339,0.203198,0.0858629,-0.0704178,0.314738,0.725431,0.0328839,-0.149235,-0.206157,0.993626,1.00991,0.0739096,0.950085,-0.299087,0.670405,-0.0182447,-0.685161,0.521399,-0.0344508,0.221357,0.736625,0.500047,0.864824,-0.0241332,-0.282933,-0.258692,-0.303698,1.08815,-0.0954086,-0.400458,0.497659,-0.743579,0.63118,-0.588038,0.0144435,-0.225642,0.965832,0.875767,0.453562,-0.411885,0.697833,0.291913,0.490465,0.476358,0.821266,-0.0106907,-0.713446,0.964545,-0.660852,0.0805427,0.0143419,0.904213,-0.590971,-0.292394,-0.29148,-0.0454636,0.277354,0.233262,-0.128878,1.01039,0.661243,-0.802779,1.09525,0.120863,-0.562377,-0.0618701,0.72366,-0.768105,-0.357663,0.00566211,-0.35155,1.16861,1.12602,0.967355,0.473409,0.775721,-0.214896,0.588402
0.812359,0.196344,-0.258963,-0.34486,-0.0710023,-0.0214936,0.191186,0.465958,0.761483,1.29698,-0.472341,-0.538955,1.13581,1.01734,-0.513294,1.05949,-0.0333552,-0.247232,-0.173939,-0.481255,-0.186897,0.296838,0.352847,0.289993,0.293889,0.307302,0.0857874,-0.404263,-0.0885375,0.699331,1.01258,1.30861,-0.519537,1.3384,-0.451464,-0.0057523,-0.0983023,0.32451,1.04499,1.24797,0.206277,1.15744,1.2938,-0.0731303,0.759569,1.36529,-0.428852,1.311,-0.297152,-0.0180029,1.41453,0.100738,0.863623,0.352167,0.975519,-0.257702,1.24426,-0.353907,-0.077177,-0.259494,0.930212,-0.47981,-0.366098,0.995462,-0.556619,-0.232775,-0.425503,-0.0701341,0.676523,1.20428,-0.237379,-0.532413,0.946503,-0.358792,-0.0207559,0.290859,-0.408712,0.13518,0.186647,-0.121077,0.701964,0.185968,0.564449,0.150374,1.12292,0.124755,0.47746,0.951966,0.355636,0.98507,1.27726,-0.129365,1.09005,-0.504051,-0.549116,1.11822,-0.152038,-0.389832,-0.367131,1.10927,1.39923,-0.0197227,1.16165,0.930522,0.206273,-0.274322,-0.193831,0.382348,0.445645,0.577604,0.846059,-0.267603,1.34836,-0.00470482,0.467559,1.05607,0.704838,-0.470194,0.592822,-0.35474,1.09966,0.454869,0.100682,0.774499,0.535606,0.136353,0.477502,0.968356,0.331308,0.695158,0.662415,0.315328,1.26022,0.408849,-0.169363,0.0512825,0.719314,0.221594,1.01842,-0.250254,1.38398,0.449264,0.0669305,1.31713,1.02935,1.11928,0.957987,0.318971,1.23387,0.135597,0.549019,0.918321,1.17525,1.23449,0.277607,0.295647,-0.0443703,1.3399,-0.15121,0.871726,0.619841,1.09599,-0.22816,0.464851,0.0896281,0.187265,1.10092,1.39373,0.993646
0.20558,-0.770283,0.463872,-0.760368,-0.118565,0.365791,0.853765,-0.414502,-0.0914348,-0.242476,-0.595844,0.628949,0.891331,0.907264,0.38899,0.710607,-0.230342,-0.730576,-0.748976,-0.305658,-0.296998,0.707537,0.89897,-0.616219,-0.935835,-0.0513914,0.0581965,-0.163783,-0.365683,0.0367132,-0.585349,-1.07677,0.349763,-1.03814,-0.753805,-0.685468,0.41098,-0.816706,-0.0166365,-0.597121,0.0241518,0.470853,-0.884838,-0.00118419,0.46145,0.587485,-0.207244,-0.685558,-1.05976,0.127114,0.0921166,-0.273422,-0.0820162,0.0744202,0.193692,0.0654818,-0.893638,-0.664778,-1.01497,-0.175987,0.455269,-0.516984,-0.169423,-0.111634,-0.471794,0.160105,0.286231,-0.97748,0.426733,-0.647072,-0.491268,-0.465782,0.907114,-0.292773,0.616367,0.451897,-0.621955,-0.507543,0.849672,-0.598378,0.702904,0.0251217,0.211533,-0.295779,-0.817125,-0.511441,0.853036,-0.627429,-0.0928858,-1.0786,0.279917,-0.554284,-0.512248,-0.806173,0.417416,0.0992909,0.437266,-0.21302,0.205144,-0.0526679,0.223241,0.797209,0.564884,0.213688,-0.41223,0.264585,-0.251082,0.0491483,0.840375,-0.318077,0.534103,0.626612,0.790378,-0.17103,-0.585833,-0.943413,0.400862,-0.649463,-0.487509,-0.608691,-0.644728,0.875741,-0.079641,-0.0736428,-0.847098,-0.578892,-0.891018,0.673501,0.291421,0.397459,-0.295834,-0.402005,0.278001,-0.647617,0.895016,-1.0509,0.700301,-0.272732,0.0815861,0.62401,0.492524,-0.300977,0.333955,0.366236,0.611326,0.831455,0.506156,0.0955207,-0.734674,-0.89802,0.570163,-0.296069,-0.938945,-0.426144,0.713622,-0.70271,0.0782971,0.905937,-0.945876,-0.546948,0.386729,-0.158376,0.13438,-0.251936,0.277341,0.11273,-0.219498,0.0609752,-1.07667
-0.859798,-0.0369011,0.693969,-0.0774418,-0.619612,0.143538,-0.382783,-0.704824,-0.266972,0.796071,-0.356165,-0.0816584,0.449568,0.4311,0.0627303,1.10676,0.228055,0.443354,0.268388,0.217325,0.580812,0.804773,-0.312612,-0.494231,0.0224862,0.518785,0.866443,-0.78145,-0.61738,0.0107518,-0.774786,-0.588625,0.862403,0.807736,0.222485,-0.868657,-0.160173,0.728255,-0.684928,0.461407,0.412879,-0.15254,-0.731699,-0.249,-0.832887,0.219584,-0.25369,0.283721,-0.448509,0.90325,-0.610401,1.02086,0.596575,-0.034461,-0.584823,-0.492386,-0.627123,-0.829827,-0.385284,-0.355951,0.0694774,-0.271518,-0.0560238,-0.179567,-0.575229,1.05501,-0.159671,0.153151,0.671822,0.0439541,-0.49689,-0.0267462,0.779967,-0.340036,0.612806,0.835632,0.768101,-0.752332,0.00790567,-0.791855,1.03947,0.286057,-0.882447,0.524598,-0.859852,-0.578718,0.920764,-0.598423,-0.519992,-0.575968,-0.065821,0.438038,0.0410675,0.766708,-0.852976,0.354391,0.710274,-0.124095,-0.603906,0.270649,0.808412,-0.212243,-0.867545,0.476931,0.336274,0.633814,0.201116,-0.0070723,0.770035,1.09757,0.0896249,0.698058,0.272184,0.0957301,0.111209,0.300885,0.405565,-0.0794746,0.591015,0.774125,0.23311,-0.586254,0.100716,-0.83727,1.06901,0.136292,0.405674,0.667834,0.90075,0.690321,-0.172965,0.597714,-0.63337,-0.151957,-0.0368021,0.591457,-0.62959,1.05287,-0.527063,1.029,1.03899,0.451114,0.615608,0.19973,-0.564603,-0.384631,-0.610832,0.729515,0.424447,0.868735,0.392192,-0.45389,-0.828966,-0.618539,-0.402607,-0.871406,0.406305,0.89162,0.68498,0.195607,0.470493,-0.599432,-0.318126,0.725676,0.137164,0.533624,0.205685,0.396126,0.475044
0.850009,0.596511,0.685425,0.189676,0.100672,-0.226292,0.513626,0.604594,0.0514288,0.131693,-0.0824063,-0.191283,-0.587562,0.352256,-0.131697,-0.317549,0.838202,-0.114551,0.977309,0.618375,-0.541018,0.0614685,-0.0225801,-0.251898,0.631895,-0.408352,0.773818,0.0540716,0.685885,0.0584969,-0.582332,0.141612,1.26073,0.70881,0.937006,-0.0328853,1.08824,0.0563486,1.17743,-0.254618,0.793759,-0.299263,0.159816,0.811914,0.658711,0.633837,1.10008,0.102631,1.125,0.683109,1.32672,1.1897,1.35029,-0.0901402,-0.456477,0.587907,0.107225,0.923059,1.2477,-0.601172,-0.412727,1.27108,0.146157,-0.546284,0.585609,-0.31112,0.0265482,0.279562,0.350946,-0.190308,0.630662,-0.249578,0.116146,-0.603804,1.16805,1.38057,0.635751,0.873854,0.0889222,0.366472,0.16268,0.021362,0.161893,0.118692,0.536939,0.311134,1.31232,1.24988,-0.16009,1.16573,1.25443,0.0329006,1.04253,0.00630196,0.0923341,0.233854,0.3009,0.7246,1.11913,1.25756,1.14001,0.355513,-0.386297,-0.138128,0.357426,1.38747,-0.151836,-0.401106,0.867046,0.542803,0.571084,-0.364557,1.16988,1.33869,0.359852,0.312539,0.255546,0.277886,0.168139,0.701173,0.0493321,0.0282834,1.33979,-0.302423,0.640303,0.0378426,0.537148,-0.45308,1.36816,0.261999,-0.589799,1.11389,1.22323,-0.370379,-0.418525,0.186373,-0.377187,0.0353565,0.390984,1.09558,1.18388,-0.432214,1.33674,0.959477,-0.487802,0.302306,-0.122266,0.373461,1.18591,0.651591,-0.319648,-0.159041,1.28559,-0.37414,0.144253,0.531612,0.26942,1.28712,0.684249,0.243297,0.154835,0.700167,-0.0370995,-0.0162191,0.935505,0.150093,0.775871,1.16404,0.791167
-0.227947,0.86481,0.580242,-0.0544436,0.807264,0.145437,0.0634717,-0.284712,0.628889,1.04265,-0.493086,-0.113803,1.32872,-0.0464091,-0.222494,-0.439703,0.703562,0.914835,0.435434,0.596398,0.204801,1.28445,1.35695,-0.489315,-0.146933,-0.0535521,1.05191,0.608877,1.32804,0.821661,0.00576201,-0.293674,0.292708,1.19224,0.25812,-0.293791,-0.0560846,0.927829,0.0277333,1.17904,0.576716,0.140885,-0.328525,0.511672,0.700713,0.0552179,0.678206,0.0105118,-0.42371,-0.280122,1.21315,0.387328,-0.389437,1.17633,0.50425,0.0698674,-0.270981,0.162395,1.28498,-0.336708,-0.409707,-0.103019,-0.0241445,0.489238,-0.304541,0.840213,0.801683,0.245612,0.374279,-0.564346,0.0308906,-0.442768,0.182776,0.308603,0.675141,-0.510274,0.970058,-0.0404152,0.106475,1.15258,0.285699,-0.0741413,0.14615,0.5025,-0.291571,1.25664,1.1786,0.0436849,0.0252684,1.06982,0.313214,0.221798,-0.426958,0.895307,1.31727,-0.125261,0.341756,0.725193,0.726588,1.32227,0.767084,1.36372,-0.514259,-0.443903,0.278556,0.76712,-0.34794,-0.145149,1.33294,0.364772,-0.386327,0.224878,0.896868,0.36606,1.33362,1.21153,0.228933,1.11846,-0.138543,0.860439,0.794518,0.780908,-0.311526,0.973797,0.282452,-0.388016,-0.545227,1.23045,0.943414,0.787598,1.15895,0.316736,0.757551,1.25093,0.47907,-0.357657,0.62429,0.737367,0.103431,0.563469,-0.291623,0.323341,-0.605416,1.21148,1.29564,1.33444,1.02925,0.130808,1.05913,-0.503052,-0.402516,0.459887,0.884093,-0.107805,0.0399213,-0.227219,0.110416,0.100932,-0.390537,-0.339932,-0.505233,1.37465,0.583041,0.858554,1.23182,-0.331652,1.10713,0.462351,1.01195
-1.08609,-1.27083,0.423675,-0.15651,-1.27001,0.241394,-0.254635,-1.32934,-0.123115,0.48241,0.33603,-0.0199302,-1.31387,-0.597846,-0.5296,-0.815437,0.0483121,-0.150582,-0.098783,-1.24452,0.0651185,0.167522,-1.14352,0.0460106,-0.6432,0.321276,-0.115928,-0.368615,0.0346479,-1.04734,-0.750425,0.457688,-0.809045,-0.817622,-0.189693,-0.569929,-1.0671,-0.9352,-0.39014,0.318914,-0.943662,-0.544981,-0.191888,-0.748402,0.366301,-1.21236,-0.05471,-0.0762588,0.146187,-0.644365,0.18835,-0.279566,-0.967714,-1.44604,-0.724427,-0.101786,0.384368,-1.33123,-0.961272,-0.0718556,-0.869437,-0.202569,-0.105039,-0.169353,0.488937,-0.785604,-1.23015,-1.06903,-0.211675,-0.111164,-1.24099,0.353791,-1.14702,0.0762498,-0.885482,-1.27159,0.373019,-1.43106,0.161281,0.0283339,-0.5663,-0.14124,-0.742104,-0.0248852,-0.0781478,0.0425974,-0.617542,-0.184651,0.2205,-0.0696858,-0.747378,-1.13981,-0.763126,-1.34329,0.199967,-0.765061,-0.619764,0.478942,-0.324966,-1.32231,-0.123094,-0.0568284,-1.45939,0.239018,-0.47145,-0.835745,0.476558,-0.589303,-0.75768,0.146967,-1.05184,0.185149,-0.485144,-0.284816,-0.330608,-1.05416,-0.73309,-1.43902,0.270314,-1.00346,0.000420994,-0.967936,-0.634142,-1.25358,-0.802096,-0.925046,-0.509509,0.0872681,-0.936975,-1.32535,0.274085,0.44906,0.126954,0.323823,0.197206,-0.835368,-1.00279,0.182892,0.0844578,-0.251345,-0.161012,-1.45825,-0.557068,-1.13703,-0.233942,-1.37855,-0.682063,-1.4579,-1.30844,-0.90262,-0.952237,0.201109,-0.361427,-0.0772505,0.456661,0.345605,-1.49317,-0.54372,-0.0579986,-0.921015,-0.359937,-0.274785,-0.962827,-0.723855,-0.441833,-1.25649,-0.0500943,0.0645013,0.435527
0.052969,-0.168238,0.29312,0.103843,0.783822,0.665221,-0.62097,0.914404,-0.507713,-0.569745,-0.884908,0.0987955,-0.0128537,0.825329,-0.753503,-0.580976,0.791119,-0.89877,-0.565015,-0.243473,0.55236,0.0230979,0.905718,-0.213296,0.569399,-0.309008,0.853999,0.822035,-0.849974,0.427628,0.766691,0.202647,-0.740958,0.0594627,-0.693859,-0.957485,-0.275665,-0.315177,0.956571,0.216274,0.114729,-0.928686,-0.685279,-0.898473,0.896295,-0.439131,-0.479797,0.687065,-0.33825,-0.0451614,-0.556756,-0.786239,0.977588,-0.651386,0.000116565,0.546639,0.0392571,-0.146233,0.368325,0.188935,-0.718953,0.134668,-0.608767,-0.46026,-0.806218,-0.302975,-0.418093,-0.0822313,0.381499,-0.461871,-0.866306,-0.50412,-0.390906,-0.551934,-0.402942,-0.494959,0.00858681,0.116912,-0.808243,0.669989,-0.928598,-0.365347,0.883402,-0.951358,-0.0170818,-0.11683,0.594932,-0.978173,0.736588,-0.037091,0.210413,-0.982714,-0.902772,0.601297,-0.443323,-0.709338,-0.702026,0.138235,0.208082,0.679125,0.676015,0.341428,-0.825344,-0.715239,0.789145,-0.228634,-0.210546,-0.202616,0.887929,-0.0191375,-0.532976,0.958983,0.615167,-0.649923,-0.992724,-0.402263,0.232898,0.60186,-0.380785,-0.0308626,-0.43558,0.829279,-0.0139252,-0.3387,0.430228,0.542403,-0.0483868,0.727854,-0.31971,-0.840653,0.40663,-0.644043,0.500426,0.580938,-0.35963,0.289223,-0.648045,0.429475,-0.913742,-0.760464,-0.590011,-0.447067,-0.80183,-0.975193,-0.0973382,-0.794902,-0.377805,-0.864789,0.806609,0.241062,0.104,-0.629319,0.0699927,-0.910273,0.0316323,-0.500128,0.631781,0.982897,-0.772623,-0.688277,-0.858105,0.633659,-0.332669,0.641972,0.214248,0.307352,-0.0691535,0.565855,-0.263521
0.284124,1.07241,0.413487,0.836709,-0.729768,0.437946,-0.260977,-0.525018,1.05979,-0.126114,-0.718757,0.300506,0.977537,-0.348425,-0.62985,1.06692,0.682859,-0.130326,0.698349,0.665407,0.096703,1.00972,0.806954,-0.269987,-0.323294,0.448578,0.943913,0.98371,-0.620924,0.509419,-0.28016,0.395483,0.314113,0.865611,-0.0355242,0.316629,0.0358398,0.435782,0.523894,-0.172084,1.04195,0.53742,0.860705,0.751771,0.921278,0.963139,0.55097,0.33642,-0.434904,-0.0183985,-0.265889,0.394082,-0.276392,-0.726652,0.856379,0.132597,0.454209,0.532575,-0.15141,0.565568,-0.225722,0.300713,-0.306665,0.820674,-0.101393,0.390094,-0.130414,0.66673,-0.441842,1.12576,1.22693,-0.667608,0.395466,0.819917,0.816446,0.0490273,0.515339,0.0996988,1.11773,0.812719,0.813584,-0.415875,-0.0609157,-0.730525,-0.410244,-0.472254,0.134355,0.776248,0.792605,0.715228,0.0740991,-0.700834,-0.251776,0.499717,0.852123,0.379114,-0.377906,-0.546008,-0.221873,-0.0874647,-0.687961,-0.262661,-0.0227897,0.439788,-0.71046,-0.474061,1.2211,0.537162,0.357921,1.07111,0.0821642,-0.0962118,-0.61248,0.753532,-0.0944541,-0.290441,1.01356,0.772184,1.21809,0.538449,0.219694,0.0244723,0.569898,0.700201,1.25647,0.154305,-0.188402,-0.389151,0.34058,0.322008,0.255668,0.384902,0.791631,0.965161,-0.443027,0.813453,1.22338,-0.489646,0.0828988,0.313589,-0.68625,0.897346,0.94966,-0.566447,0.383161,-0.412511,-0.124605,0.129006,1.09196,-0.174232,-0.600262,0.0439332,0.582524,0.70192,-0.523582,0.571279,-0.411492,0.0202991,0.914412,0.661371,1.07459,-0.0976371,-0.221444,0.598504,-0.400193,0.067812,0.144241,-0.444526,0.310449
0.688413,0.330337,0.0854728,0.318043,0.0122796,0.251309,-0.566513,0.332052,0.858987,0.294776,0.156291,-0.582962,0.426797,0.932507,0.731845,-0.139,-0.858792,0.0354076,0.181791,-0.10621,-0.317897,-0.424555,-0.299336,0.316749,0.0862846,-0.968548,0.648839,0.88638,-0.0920243,0.936597,-0.0708875,-0.400318,0.270226,-0.982122,0.921017,-0.714201,0.27248,-0.642203,0.621143,0.134759,0.655866,-0.219273,0.55509,0.085956,-0.283473,0.290228,0.950249,-0.138972,-0.671072,0.135333,0.758111,0.0143238,0.714071,-0.537932,-0.665635,-0.196351,-0.503188,0.986497,-0.306679,0.40808,0.926387,0.625727,-0.988945,0.199906,0.646897,0.935365,0.488998,-0.0773304,-0.703545,0.113434,-0.939278,0.955613,0.897453,0.619105,0.0448621,-0.382728,-0.0873746,-0.00159604,0.481593,0.244847,-0.86297,0.242996,-0.737537,0.854394,0.708357,-0.399879,-0.338665,-0.791539,-0.410088,0.35795,0.619834,-0.480409,-0.0130312,0.634182,0.72279,-0.362841,0.57284,0.215081,0.563121,0.872587,-0.668193,0.627136,0.831493,-0.767447,0.249533,-0.120352,-0.146882,-0.834549,0.881345,-0.661996,0.41359,-0.978332,0.584292,0.679347,0.879354,0.295942,-0.717239,-0.456017,0.507696,-0.124035,0.905225,0.130823,0.398849,-0.104513,-0.231702,0.124932,0.535938,-0.65557,-0.656695,0.102352,-0.77969,-0.321595,-0.26722,-0.944903,-0.0857495,0.985606,-0.0619624,0.770661,-0.84565,-0.177325,-0.888042,0.571233,-0.152364,0.699543,0.253873,-0.269717,-0.00122261,0.539926,0.277558,-0.490234,-0.580816,0.186076,0.643882,0.821325,-0.915145,-0.584528,-0.0504497,0.624086,-0.236805,0.296149,-0.270269,-0.0132016,0.977846,0.465805,0.0451877,-0.10461,0.454703,0.986518,-0.330656
0.650317,-0.149543,-0.177436,0.224843,0.701385,-0.4746,-0.517992,-0.565039,0.52747,1.02523,0.715812,-0.959471,-0.552297,-0.0948189,0.687703,-0.727679,-0.00667071,-0.893532,0.225165,-0.379292,-0.127044,-0.475394,0.353732,0.863048,-0.494255,-0.17717,-0.0884719,0.404427,-0.719174,-0.098661,-0.922936,0.896465,0.717118,-0.135049,0.0866302,0.383826,0.355673,0.533961,0.784109,-0.151534,0.52451,0.465244,-0.145683,0.937536,-0.664253,-0.492657,-0.824821,0.294399,-0.420866,0.365666,0.88043,0.417412,0.855595,0.199484,0.245782,-0.673338,0.987637,-0.877367,0.696412,-0.766215,-0.0107058,0.738798,-0.904428,-0.328265,-0.430929,0.147525,1.02088,0.890067,-0.353192,0.770314,-0.296145,-0.86336,0.20088,0.523494,-0.960502,0.501949,0.99616,-0.82,-0.238329,-0.459384,0.510989,-0.392577,0.923351,0.331906,0.772229,0.134455,0.62389,0.725188,0.222411,0.285624,0.924296,-0.822973,-0.0102551,0.98519,-0.185916,0.524139,0.098038,-0.199711,0.379528,0.710169,-0.464074,-0.951295,0.812131,0.702128,0.537522,0.816952,0.1694,0.499004,0.962275,0.896393,1.00494,0.438586,-0.530862,0.893615,-0.264186,-0.793311,-0.00660735,-0.674973,0.8972,-0.818874,0.575974,0.786818,-0.676525,-0.468959,0.737331,0.102882,1.0205,-0.199309,0.868494,0.365352,-0.523818,-0.630258,0.379379,-0.746364,-0.962808,-0.117777,-0.96409,0.171914,-0.65345,0.963507,0.0336296,-0.683186,0.367416,0.46809,-0.824249,-0.931448,0.640101,0.134466,-0.641099,0.502624,0.280914,0.900197,0.254764,0.569712,-0.603439,-0.0425827,-0.362084,-0.617615,0.723431,-0.528268,0.713059,-0.835065,-0.193204,0.0577605,-0.616107,-0.190689,0.905306,-0.614874,0.946547
-1.04292,-0.946141,-0.314598,-0.760782,0.386597,-0.881185,-0.619709,0.420471,0.724238,0.48008,0.744695,0.192185,-0.273683,0.610214,-0.587729,-0.738649,-1.0279,0.335011,-0.13541,-0.680195,0.0237639,0.301645,-1.00181,0.154022,-0.926237,0.0212687,0.503237,-0.151604,-0.108103,-1.14631,-0.239734,0.0743979,-0.867036,0.671088,0.539035,0.74498,-0.984678,-0.855254,0.39087,-1.03502,-1.14976,0.360984,0.382583,-0.198019,0.196618,-0.979726,0.288751,0.394135,0.580703,-0.62124,-1.06064,-0.170113,-1.09418,-0.837036,-0.790672,-0.794993,0.409652,-1.06202,0.278823,-0.473032,-0.982911,-0.735492,-1.17321,-0.624528,-0.838985,0.59124,-0.654129,-0.598244,-1.0386,-1.03784,-0.407845,-0.962931,0.548565,-0.799842,0.0644688,-0.0293978,-0.55415,-0.421361,-0.409844,-0.748027,0.182819,-0.245066,0.307279,0.314063,0.143317,0.742026,0.744489,-0.221612,-1.09457,0.24873,0.530776,-0.852062,0.738658,0.58298,-0.25117,-0.874908,0.399639,0.32012,-0.247732,0.586463,0.507701,0.569842,-1.15105,0.281685,-1.00458,0.138839,-0.522294,-0.333311,-1.0571,0.293282,0.144081,0.351136,-0.726365,-0.32322,-0.109383,0.642372,-0.355775,-0.139475,-0.353821,-0.224926,-0.665325,-0.597626,0.148431,-0.701248,-0.789227,-0.87732,-0.350737,-1.16417,0.66822,0.626951,0.647714,0.40134,0.422212,0.722084,-0.0915562,0.643051,0.0863418,0.611569,-0.464841,0.254658,0.13027,-1.09534,-0.168787,0.629325,-0.193141,-1.05275,0.497116,0.676503,0.0331946,-0.631286,-0.323004,0.593289,-0.00349324,-0.949154,-0.88254,0.432699,-0.601054,-0.00785733,0.49395,-0.707415,-0.155487,0.367083,-1.08066,-0.507856,0.314586,0.0532069,-0.639386,-0.373653,-0.109805
0.641823,-0.372945,-0.233484,0.771902,0.683688,-0.37874,-0.19582,0.856357,-0.656205,-0.293897,0.114971,-0.062072,0.608518,-0.0663206,1.15985,0.884784,0.276559,0.817972,-0.490851,-0.505879,0.537342,0.0271527,0.564052,0.129844,0.171916,1.28162,-0.330151,-0.549458,-0.132351,0.521615,0.566157,1.21426,0.853459,1.03746,0.690952,0.241935,-0.636491,1.19992,-0.196919,-0.587907,-0.389189,0.622841,0.0548089,0.924118,1.26131,-0.0805487,0.51369,0.242655,-0.557788,0.727627,0.441564,0.684342,-0.540432,-0.289595,-0.481026,0.336272,-0.303191,-0.106388,0.491602,0.269247,1.12001,-0.237453,0.188296,0.678262,-0.495203,-0.415964,-0.375014,-0.426906,-0.511255,0.132855,-0.310025,-0.195655,-0.539516,0.449572,-0.566749,-0.573419,1.07381,0.651729,0.374024,1.22081,0.0841444,-0.479623,0.609943,0.248501,-0.0644296,0.833706,1.28956,0.337168,-0.567894,0.485952,-0.688797,1.25691,0.953287,0.204288,0.639959,1.16287,0.493112,0.969733,-0.559245,0.686646,-0.192623,-0.164482,1.19578,-0.0273507,0.989879,-0.666181,0.104018,0.768479,0.690336,1.18283,0.69408,-0.520731,-0.592003,0.00881127,0.432558,0.0483553,-0.452695,0.426907,1.09031,-0.315801,-0.382352,1.1063,-0.354104,1.27572,0.0153789,0.990644,1.14338,1.21328,0.665166,1.28893,0.604714,1.17733,-0.170766,0.505281,-0.145232,-0.476099,0.543888,0.663575,0.997169,-0.0609871,0.551195,0.396037,0.12307,0.66398,1.10964,1.26042,-0.582877,-0.63827,0.392112,1.21222,-0.249283,0.714548,1.02331,0.101402,0.69506,-0.256518,-0.203166,0.543232,-0.33845,1.16679,0.536947,0.971052,1.04891,1.07097,0.181122,-0.391536,-0.700341,-0.570201,0.976827
0.339129,-0.588887,-0.429677,-0.560046,0.238971,-1.06091,-0.745621,0.204176,-0.938997,-0.679103,-0.698924,-1.02199,-0.223597,-1.27959,-1.29388,0.582593,0.12026,-0.845613,-0.915784,-0.63172,-0.479275,-1.04421,0.610016,-0.803435,-1.29051,0.385774,0.0824756,-0.977261,0.390221,0.217063,-1.29565,0.0966252,-1.00455,-0.358047,-1.09615,0.601697,-0.0516803,-0.474492,0.173148,0.376598,0.213681,-1.1585,-1.27811,-0.642641,-1.07081,-1.20472,-0.692773,0.416723,-0.683058,-0.241282,-0.847721,0.204943,0.0817859,-0.870429,-1.23122,0.158549,-1.11738,0.218535,0.548564,-1.35988,-0.197127,0.620194,0.104018,0.165599,-0.370577,0.375148,0.134571,-1.05498,-0.732068,-0.325005,-1.31111,-1.15111,-0.116229,-1.22195,-0.426478,0.180234,-1.05939,0.248025,-0.0357671,-0.375173,-0.625981,0.483788,-0.802955,-1.17692,-1.01937,-0.666896,0.348905,-0.76947,-1.08109,0.264744,-0.762077,0.0890627,0.252213,-1.29078,-0.378063,-0.751089,0.451639,-0.876216,-0.438796,-0.913154,0.166055,-0.382629,-0.69699,-0.582899,-0.2373,0.243807,-1.03539,0.0705852,-0.140892,0.296119,-0.937312,0.600403,0.147182,-0.372992,-1.20924,0.495091,0.327388,0.506939,-0.907103,0.613578,0.138958,-0.301905,0.0699165,-0.241554,-0.225413,-0.940871,0.374633,-0.406499,-0.449812,-0.696887,0.0476228,-0.916481,0.287759,-1.28209,-0.132105,-0.582265,0.328991,0.199781,-1.1444,-0.444626,-0.136825,-0.714441,-0.476947,-0.622368,0.279843,-0.318913,-0.760001,-0.0254931,-0.444699,-0.299829,-0.0446393,-0.938466,-1.23446,-0.607447,0.187256,-0.0925963,-0.181043,-0.0708351,-1.13182,-1.26358,0.599553,0.283079,-0.812785,0.254588,0.368262,0.422386,-0.960401,0.0645282,-0.0105582
-0.370021,-0.645314,-0.4126,0.282813,0.245014,0.332308,-0.070068,-0.706623,0.939582,-0.728286,0.215953,0.00702881,0.594351,0.644763,0.139846,-0.645821,0.199295,-0.585475,0.540412,-0.504265,-0.350019,0.644108,-0.537436,-0.699665,-0.801401,-0.915573,-0.964128,0.98826,-0.508698,0.467676,0.344977,0.121048,0.82213,0.932145,-0.596372,0.066911,0.26422,0.333327,0.360055,0.203569,0.604809,-0.424225,-0.789635,0.198927,-0.779695,0.349978,0.552873,0.419367,0.76427,0.0930512,0.914869,-0.585981,-0.263074,-0.6228,-0.285879,-0.0647076,-0.538605,-0.25024,-0.0766806,-0.0475361,-0.782796,-0.731936,-0.926721,-0.9609,-0.800024,-0.523326,0.105778,0.463962,0.809768,-0.5344,-0.332701,0.414344,0.0411423,-0.122569,-0.386962,0.261214,-0.772824,-0.834322,-0.319651,0.991213,0.258496,-0.405015,-0.595001,0.99519,-0.0280473,0.118887,-0.069751,0.433115,0.868414,0.853336,-0.614654,-0.914615,-0.878834,-0.541608,-0.875748,-0.679091,-0.0651673,0.229798,0.784639,-0.255632,0.695165,-0.548295,-0.84152,-0.263925,0.328902,-0.228715,0.997056,0.555845,-0.0632702,-0.322828,0.546826,-0.805007,0.271924,0.951592,-0.81005,-0.756356,0.0702455,0.119966,0.676526,-0.0615731,-0.0269315,-0.938361,0.0235789,0.094002,-0.480202,0.147598,0.414678,0.454398,-0.622837,0.199084,-0.801467,-0.927904,0.650556,-0.64322,-0.192063,-0.0207748,0.127832,-0.195239,-0.465163,-0.935671,0.4817,-0.91857,-0.740911,-0.246609,-0.967211,-0.551194,-0.00319765,0.102801,0.568539,-0.326904,-0.959005,-0.458626,-0.265498,0.0643415,0.635143,0.254067,-0.788293,0.0495887,-0.291768,-0.411362,-0.75156,-0.0934683,-0.3395,0.898763,0.263079,0.468205,-0.122245,-0.609322,-0.727267
0.858552,-0.099034,1.20039,0.93975,0.159822,-0.0464496,0.972306,0.608395,0.95012,0.0748742,0.1767,-0.377017,0.115637,0.717842,0.357251,1.17975,0.352752,-0.388915,1.39122,1.40211,0.319084,-0.0203758,-0.349685,1.22538,0.639892,-0.451155,0.488229,0.107864,0.426368,0.878673,0.380364,-0.161505,1.33321,0.134331,1.33182,0.0466112,0.641456,0.8577,1.20858,0.145151,-0.513851,-0.0611438,0.321708,0.155361,1.21027,1.23253,-0.111319,0.1166,1.39719,-0.166524,0.0722824,0.269853,0.366675,0.276172,0.048811,-0.439859,0.378593,1.09061,0.22158,1.35854,0.522863,1.15552,-0.249394,0.409652,-0.156576,-0.364,1.00984,1.03846,1.04728,0.771994,-0.262819,1.087,1.26442,0.612465,-0.204065,1.02827,0.398574,0.238191,-0.301553,0.349344,0.625242,0.324304,1.17277,-0.454509,1.15405,-0.224842,-0.340793,0.0862193,1.41935,0.434362,-0.00167016,0.495785,0.143456,0.30251,-0.540988,0.540455,0.492086,1.02242,0.132485,0.0929359,0.347993,0.423242,-0.26649,0.165993,-0.410719,0.0830202,-0.25216,0.541431,0.874786,-0.000137687,1.44435,0.0536028,0.877742,1.1707,0.152669,0.585368,-0.500571,0.365451,1.22516,-0.527648,1.35339,-0.222933,0.521712,0.0504187,0.633152,0.534298,1.14445,-0.321187,0.110298,-0.169491,0.325324,1.01187,0.807326,0.612409,-0.268566,0.950182,1.249,0.0328498,0.0451873,0.677365,0.586287,0.0431115,1.28454,0.0176034,-0.232617,-0.0092135,1.15655,-0.179613,0.909812,0.935284,-0.153686,0.816775,1.26593,0.921601,1.42077,0.452653,0.00947391,1.11879,0.685041,0.673347,-0.497124,-0.43606,0.238788,0.863777,0.729923,0.523798,0.367534,0.532502,1.11022
0.522892,-0.679961,-0.193319,-0.880421,-0.841844,0.377859,-0.559463,-0.297482,0.0879803,-0.185501,-0.834095,-0.423161,0.214388,0.536255,-0.60366,-0.310437,0.510599,0.402567,0.252612,0.182967,-0.358817,-0.520466,0.239418,-0.241302,0.271897,-0.34323,-0.957804,-0.650731,0.577879,0.128273,-0.986933,0.0977493,0.44529,-0.183274,0.214307,0.600424,-0.808437,0.651822,-0.70008,0.276522,-0.536701,-0.537196,0.850339,0.674665,0.996037,-0.756343,-0.638794,0.503615,0.643203,0.610796,-0.31644,-0.718636,-0.912692,0.919956,0.0370405,0.356183,-0.426295,0.0762147,0.702431,-0.851439,-0.798534,0.712476,0.243289,0.643734,-0.47382,-0.545426,0.241137,-0.285279,-0.896626,0.538036,0.988221,-0.436349,0.997817,0.835539,-0.764706,0.990833,-0.923826,-0.406522,0.491426,0.716355,-0.798747,-0.828035,0.994697,-0.714461,-0.911101,0.0287163,0.638701,-0.340418,-0.898091,0.33811,-0.194878,-0.699646,0.0475647,-0.954611,0.941066,0.570723,-0.503058,0.179182,-0.717578,-0.402706,-0.285805,-0.732378,0.157923,-0.291009,-0.899861,0.390196,-0.303197,-0.826709,0.980653,-0.814793,0.886624,-0.821116,-0.64585,0.8783,-0.538598,-0.559972,-0.0960053,-0.902919,0.0965882,0.00288242,0.43217,0.898688,0.300215,-0.523287,0.941056,0.238259,-0.955586,-0.565024,-0.585581,-0.676185,0.0292481,0.125593,-0.411584,-0.81585,0.831562,-0.314467,0.571324,-0.474657,-0.144198,0.548955,-0.292471,-0.260595,0.724818,0.0586578,-0.385317,-0.816802,0.495664,0.515656,-0.722742,-0.410769,-0.484483,0.706406,-0.515103,0.81271,-0.819902,-0.577069,0.0479472,-0.77851,-0.145114,0.459345,-0.457716,0.881112,-0.418084,0.127678,-0.93776,-0.589544,0.810189,0.630543,-0.0672218
0.0931182,0.606625,1.06743,0.829501,0.328421,0.123071,-0.558837,0.508598,-0.384287,0.953797,0.782834,0.201922,-0.533708,0.486218,0.683798,1.27598,0.663294,1.10371,0.320906,0.881763,-0.0444287,-0.222772,1.42102,-0.166338,0.356122,0.545681,-0.10712,0.763557,0.352848,-0.479599,-0.306686,1.0128,0.693856,1.32758,0.409126,-0.410893,0.0174783,0.417118,0.664534,0.200021,-0.0622557,0.0141974,0.968772,-0.0291343,1.06725,0.219399,-0.186325,0.297369,-0.110064,0.70141,-0.254039,0.412337,1.04547,-0.266185,0.812828,-0.0315804,0.846326,1.27254,1.29881,-0.233997,1.35977,-0.441051,1.34563,0.620454,-0.546643,0.321584,0.77639,0.0376645,1.30553,0.00775377,0.804515,-0.189895,0.588781,0.340116,0.3478,0.222855,1.12635,0.728304,1.08705,-0.416889,-0.00345632,1.39984,0.562277,-0.391159,-0.299512,-0.0580659,0.14409,1.11364,-0.218699,0.00972552,-0.553525,-0.292101,0.135504,1.35893,0.895182,0.155691,0.247345,0.238402,0.760184,0.119706,0.812985,0.131529,0.49664,-0.0314054,1.03847,1.41127,0.758279,0.731649,0.706403,0.412161,0.881589,1.26978,0.378834,0.0106949,-0.554554,0.646151,0.519458,0.156365,0.326623,0.867589,0.73292,0.339927,1.14232,-0.564746,0.265689,0.604328,0.157774,1.07986,1.40956,-0.515212,-0.233601,0.789373,0.183146,0.829868,1.3248,-0.211551,0.807967,0.649906,1.08693,0.081199,-0.371104,0.535346,-0.0821958,0.57456,1.11287,-0.0699203,-0.21246,0.199158,0.653274,0.680992,-0.366424,-0.046976,-0.412251,1.34272,-0.0448926,0.420268,0.51388,0.679711,0.0669612,0.490268,0.731328,0.40019,-0.153529,-0.518697,-0.203112,-0.261902,-0.163418,1.17168,0.954833
-0.692448,-0.363075,0.967772,0.409727,0.121559,0.109161,0.0894261,0.618468,0.46353,0.855413,-0.161428,-0.288648,1.05582,0.358425,-0.13407,0.96537,0.880362,0.853028,0.0460793,0.126902,-0.513182,1.10318,-0.574941,0.453837,-0.483522,-0.526808,0.817554,-0.178595,-0.123397,0.556068,-0.656932,-0.066229,0.94261,1.06046,1.09311,-0.186215,-0.0807668,-0.0678431,1.18187,1.13238,-0.462813,-0.229943,-0.406652,-0.657378,0.878099,0.208895,1.05761,0.508077,-0.188461,-0.146696,-0.615404,0.0479743,-0.293902,-0.440728,-0.748572,-0.027808,-0.21792,0.818599,0.543214,0.408299,0.124284,0.635898,1.09169,-0.18349,0.44597,0.934417,0.379911,1.11482,-0.383809,0.311397,0.996816,-0.097006,0.831071,-0.660219,-0.00476793,0.458786,0.298293,-0.197543,-0.28352,0.859449,0.405377,-0.149307,-0.34296,0.861092,0.159581,-0.341915,-0.4171,0.691277,1.2263,0.87573,-0.150807,0.100201,0.261245,-0.309504,0.666327,-0.543168,-0.62547,-0.204145,-0.678732,-0.259663,0.856868,1.0677,0.392948,0.437556,1.1571,1.1378,-0.354041,0.205008,-0.31013,0.112056,-0.185927,0.844863,0.712365,0.22073,0.455572,-0.378438,0.628431,0.788088,1.06246,0.604348,0.413435,-0.338735,-0.545835,-0.575704,0.101377,0.870109,-0.369255,0.225523,-0.58442,-0.298371,0.715477,1.02206,-0.481053,-0.141959,0.209237,-0.574338,-0.254546,0.604812,0.380286,0.18494,-0.533516,0.943976,-0.22058,0.928466,-0.085678,0.984608,-0.700356,-0.707631,0.522313,1.11172,0.646333,-0.314636,-0.477403,0.850115,-0.140723,0.37359,0.46984,0.239638,-0.65127,0.635036,0.690884,0.813824,0.406718,0.959447,-0.578519,-0.634429,1.13473,-0.0834485,0.72
-0.247412,0.339068,0.42406,-0.553819,-1.1319,0.102142,0.110119,0.602329,0.151403,0.152105,-0.125742,0.0127353,-0.451945,0.309239,0.284949,-0.852214,-1.08187,-0.591844,0.367243,-0.0926127,-0.493497,-0.248104,-0.652112,-0.930057,-1.09177,-0.943048,-0.75896,-0.976582,-1.05871,-0.0927918,0.493034,-0.044461,-0.492067,0.178751,0.663376,-0.362306,-0.45745,0.0351523,-0.498321,-1.04439,-0.551086,0.637594,0.230001,0.258626,0.208489,-0.223393,0.668069,0.388278,0.44642,0.296969,-0.442678,-0.785421,-0.689479,0.166867,-0.453822,-0.519592,0.485476,0.0488752,-0.234517,0.688427,-0.78226,-0.479827,-0.0943774,-0.0126704,-1.03942,-0.169344,-1.11332,-0.235213,-0.872535,-0.349984,-0.0179471,-0.161964,-0.450734,-0.526289,-0.641682,-0.980588,0.511975,-0.711956,0.669347,0.220051,-1.15333,-0.511674,0.696286,-0.581153,-1.08315,-0.495879,0.160913,0.663982,-1.18535,-0.811948,0.614066,-0.70595,-0.030118,-0.218655,0.543037,0.192119,-1.12634,0.691374,-0.781437,-0.737221,-0.396954,0.462273,0.362472,0.413969,-0.80236,-1.01755,0.695038,-1.02873,-0.467853,0.626041,0.452979,-0.359527,-0.623976,0.410923,0.320978,-0.44547,-0.823299,-0.256453,-0.519831,-0.746989,0.193256,-0.644108,-0.191282,-0.575205,0.398894,-0.386588,-1.12143,0.534208,-0.433558,-0.641209,-0.941356,0.431145,-0.91728,0.682773,0.106771,-0.457982,-1.07312,0.0634658,-0.225054,-0.27932,-0.0488362,-0.510418,0.62281,0.588844,-0.837838,0.205444,-0.594969,-0.39948,-0.789352,0.146857,0.115188,0.665561,-1.23559,-0.814437,-0.647988,0.424956,0.0606316,-0.507761,0.220821,-1.11127,0.112687,0.541122,0.581533,0.457064,0.485551,-0.0500388,-0.739262,0.674084,-0.724916
0.949535,0.308616,1.1401,-0.299225,0.193083,0.9906,0.124593,-0.339816,-0.342712,0.98677,0.132489,1.0658,0.363614,0.0597063,1.09186,0.810834,0.673375,0.778477,0.133122,-0.572729,0.260955,0.28351,0.801615,0.0637332,0.1267,0.520336,-0.189059,1.33832,1.04273,-0.253317,-0.124941,0.601729,0.664761,-0.37538,0.911966,-0.532694,1.22468,-0.353978,-0.263048,-0.508568,1.24225,0.478903,1.1667,0.215331,1.14807,0.868023,-0.364373,0.43091,0.255962,0.378212,0.467644,1.12638,1.27119,-0.121279,-0.200425,0.0073475,1.00852,0.219979,-0.044872,0.660713,0.576124,0.439649,-0.128096,-0.149653,0.673731,-0.606668,-0.0728843,0.507876,-0.351184,0.27353,0.608771,-0.499467,1.3619,0.38493,0.325326,1.11943,-0.137584,0.570416,0.159803,0.72784,-0.441909,1.23691,0.463682,-0.561261,-0.274907,0.87272,0.0555488,1.34307,-0.297838,0.620139,0.61325,0.887749,-0.330749,1.09462,1.34756,0.952445,1.09741,-0.115863,0.0697837,1.35569,0.76713,1.28802,-0.534315,0.738489,0.28241,0.400474,0.467382,0.754288,-0.419647,1.23665,0.091591,-0.252093,1.08302,1.16474,-0.203892,-0.582424,0.646918,0.46112,1.37011,0.958543,-0.309279,0.592826,0.455754,-0.030565,0.296905,0.412775,-0.468657,0.00377854,0.906374,0.210589,-0.0310689,0.282967,0.108069,0.044079,-0.369082,0.999941,1.05402,0.707762,0.363692,1.24383,0.553873,1.06475,-0.398799,0.246356,0.838944,0.0067715,0.273394,0.0953245,1.07735,0.25297,-0.33667,1.37754,-0.544742,0.728546,-0.043565,0.361625,-0.249216,0.0972401,0.974866,1.26662,0.917291,-0.44674,0.15905,-0.365177,0.206802,0.39943,1.24423,-0.12972,-0.283345
-0.469475,-0.963282,0.193135,-0.795268,-0.752619,-0.951047,0.653139,-0.136385,-0.0681911,-0.642074,-0.449568,-1.20576,-0.369282,-0.462568,-1.14104,-1.03127,0.103329,-0.169951,-0.671027,-1.18997,-0.585622,-0.794944,0.336786,-0.422899,-0.0264322,0.581071,0.393365,-1.01754,0.43476,-1.12689,-0.691423,-0.738397,-0.793856,-1.20197,-0.237346,-0.250157,-0.856699,-0.28789,-1.09022,0.371428,0.366354,-0.243473,0.461987,-0.70661,0.590277,0.617267,-0.441565,-0.0100757,-0.256365,0.183726,0.0962743,0.454331,0.6851,-0.270622,-0.67225,-0.0450138,-0.393233,-0.982567,0.233765,-0.662155,-0.813141,-1.16134,-0.104234,-0.310679,-1.06699,-1.04526,-1.26452,-0.627372,-0.0368332,-1.05842,-0.959626,-0.374161,-0.00557631,-1.20132,0.215548,-0.118981,-1.28774,-0.929699,-0.832739,-0.247783,0.550346,0.559854,-0.497133,0.531764,-0.41445,0.126935,-0.216931,0.488636,0.440687,-0.686848,-0.8772,-1.07614,-0.55187,0.314884,-0.0904963,-0.322543,0.565941,-0.0586951,0.346403,-0.174574,0.179202,0.683095,-1.25242,-0.530057,-1.22191,0.259449,0.647281,-1.21332,0.626069,-0.88914,-0.164789,0.472733,-1.03297,0.634395,0.300816,-0.151099,0.0576488,-0.619797,-0.366145,-0.205346,-0.0103272,0.0529731,0.0148364,-1.26588,-0.335824,-0.779342,-0.292104,-0.473565,0.458281,-0.649383,0.648179,-0.0661988,-0.66997,0.69208,0.700063,-0.59556,0.247848,0.643662,-0.512567,0.170235,-0.94916,0.618962,-0.0607135,-0.685809,0.549676,-0.463579,0.45941,-0.0963571,0.212942,-0.610417,-1.00538,-0.501067,-1.26113,0.30577,-0.470628,-0.300632,-1.17725,0.533586,0.522121,0.577346,-0.819479,0.466618,-0.192535,-0.193131,0.455017,-0.196153,0.507627,-0.000817073,-0.256174
-0.217593,-0.0432359,0.582013,-0.302313,1.19237,1.19252,-0.456319,0.0251076,0.948249,0.743642,-0.465632,-0.36585,1.03458,0.329619,-0.330657,0.636664,1.15531,0.66503,0.755728,0.985213,0.483469,0.629392,-0.537947,0.246406,-0.266824,0.56524,-0.00225931,0.833341,0.369186,-0.706758,-0.126515,0.956883,0.0552964,-0.739212,-0.540139,0.0529556,-0.7414,-0.191168,0.883354,1.01214,-0.642235,-0.776988,-0.548419,-0.802369,0.35792,-0.073786,0.639585,0.31852,-0.603466,0.200604,0.109023,0.685293,-0.364714,0.376367,-0.263011,0.173753,-0.253103,0.540021,-0.187616,0.921373,0.638553,0.49116,0.683547,-0.50086,0.557239,0.948698,0.357386,0.621129,-0.437179,0.0460296,0.438559,-0.274124,0.0743316,0.69543,-0.271202,-0.762458,-0.573066,1.17367,0.361353,-0.371241,0.179567,-0.724334,1.11934,0.620144,0.457323,-0.338377,-0.400813,1.00951,1.00693,0.216861,0.736175,0.450777,-0.486689,0.225012,0.755207,0.87584,-0.0210001,-0.0821174,0.30226,0.347111,0.769203,-0.453891,0.878277,-0.351175,1.04683,-0.587635,-0.308343,-0.720945,-0.608671,0.8583,-0.286896,0.376187,0.939257,-0.362263,-0.198379,0.201871,0.10465,0.206099,0.0166718,-0.0831262,-0.77175,-0.441863,1.17294,-0.453148,0.588439,0.733438,-0.772017,-0.627271,-0.543389,0.335533,0.52513,1.0311,0.686933,0.208698,-0.514781,0.539053,0.426354,-0.0178335,0.623399,0.622973,-0.354243,1.14179,-0.19555,-0.609695,-0.41518,0.411362,0.397466,0.494761,-0.577249,-0.780572,-0.783075,-0.543709,-0.417145,-0.804844,-0.191566,0.976584,0.733884,-0.158293,1.1546,0.995786,0.982531,0.485024,0.83218,0.474754,-0.500987,1.12269,-0.180902,0.730657,-0.0898542
-0.842367,0.0687668,0.271039,-0.895283,0.678507,0.466634,-0.505173,-0.10484,-0.33061,0.794878,0.123201,-0.305891,0.817093,0.384782,0.0822539,0.81754,0.998506,-0.135872,0.356715,-0.354496,-0.175978,0.15779,-0.566675,-0.885663,-0.204739,0.71337,-0.58136,-0.27676,-0.662241,0.954588,0.438676,-0.609164,-0.0812012,-0.39484,-0.609003,-0.507249,0.967238,-0.218732,0.283354,-0.467927,-0.528409,-0.698001,0.121626,-0.815872,0.582226,1.09932,0.897113,0.476176,-0.141103,0.149271,1.01712,0.578363,-0.797494,-0.654106,0.588145,-0.106789,0.954709,0.902229,0.511895,-0.812089,0.752261,-0.153985,-0.525808,-0.433496,0.346619,-0.239367,-0.045301,0.209302,0.437345,-0.866502,0.636819,0.80438,-0.669059,-0.346111,0.883953,0.808611,-0.351343,0.67651,0.180232,0.402998,-0.278775,0.0928006,-0.123195,-0.180824,0.334139,-0.639606,0.607831,0.184292,-0.841932,0.0151703,0.267648,0.805773,0.75663,0.637283,-0.732278,-0.00130656,-0.70664,0.117865,1.10344,0.62615,0.146807,0.635703,0.325974,0.373192,-0.814964,0.105371,0.0772472,-0.270862,-0.322675,-0.847077,1.02758,0.293995,0.141168,-0.20017,1.00862,-0.629249,0.0556682,0.51189,0.450487,0.10918,-0.577495,-0.386421,-0.189603,1.07458,-0.853693,-0.0264367,-0.0312831,-0.664889,0.986872,-0.0323992,0.856705,0.0291232,-0.501252,0.0781239,-0.702241,-0.420771,1.07894,0.270451,0.203811,-0.348291,0.318818,0.126835,0.841149,-0.64457,0.822109,0.745208,-0.378374,-0.226779,0.152543,0.967558,0.777846,0.470492,-0.523419,-0.516313,0.440516,-0.481668,0.352695,-0.695323,-0.251112,0.235011,0.167722,-0.498962,-0.840421,0.561914,0.474606,-0.647218,1.03659,0.44899,0.518678
-0.411787,0.448514,-0.814689,-1.38951,0.185107,-0.563815,0.328045,-0.174241,-0.0467446,-1.00329,-1.12625,-0.183743,-1.33,0.239683,0.188283,-0.950868,-0.424357,-1.39794,0.297271,-0.224236,-0.753609,-0.572273,-1.16107,-0.357127,-0.51725,0.296289,-0.987077,-0.269024,0.22832,0.357357,-0.854902,-0.740394,0.248944,-0.226518,-0.686829,-0.122875,-1.34726,-0.91571,-0.854043,0.04907,-0.475927,-0.537222,-0.691599,-0.362853,-0.854466,-1.06024,0.129352,0.164251,-1.01511,-0.130304,-0.616911,-0.325646,-1.2595,-0.334907,-1.2397,-0.333681,-0.595544,-0.783703,-1.15963,-0.92415,-0.983273,-0.571459,-0.221471,-1.29125,-1.3549,0.534774,0.0289431,-1.25909,-0.937862,-1.38203,0.233055,0.0292842,-0.476175,-1.01547,-0.890496,0.112433,-0.63264,-1.31807,-0.280243,-0.204677,-0.00530056,0.545919,-1.08725,0.178269,-0.345914,-0.883875,-0.712338,0.501615,-0.224505,-0.428895,-0.979462,0.235296,0.442719,0.242141,0.387115,0.530889,0.219989,-0.140869,-1.28513,-1.2748,-0.0798213,0.391002,0.197558,-1.11292,-1.1814,-1.24986,0.442583,-0.370963,-1.12486,-0.394586,-1.13257,0.312912,-0.405593,-0.776743,-0.0657454,-1.30843,-0.217545,-1.33501,-1.36374,-0.998976,-0.320832,-0.900133,-1.32061,-0.43504,-1.21492,0.509582,-0.461077,0.448144,-0.188213,-0.30313,-1.38358,-0.824961,-0.469055,0.257049,-0.49481,-0.207377,0.450259,-0.609153,-1.13527,-1.23153,0.439334,-0.824759,0.524457,-0.523186,-0.158428,-0.098215,-0.388546,-0.932899,0.00984847,-0.309217,-0.488802,-0.86791,0.233724,-0.366334,0.140124,0.461879,-0.413679,-0.87788,0.353097,-1.15882,0.262064,0.412588,-0.540706,-0.763917,0.112711,0.407557,0.471779,0.00604352,-0.758523
-1.24561,0.192391,-0.901313,-0.627296,0.159921,0.0185752,-1.34265,-0.49522,-0.926897,-0.832476,-1.0423,0.20696,0.121796,-0.467135,-0.116243,-0.801465,-0.883937,-0.21129,0.22793,-0.318744,-0.41512,0.512185,-0.613606,-0.559458,-0.585448,0.0655497,-1.00367,-0.734817,-0.0195975,0.445444,-0.0502665,0.203063,0.106106,0.516692,-0.955962,-0.265702,0.00353777,-0.830341,-1.29265,-1.45509,-0.194546,-0.866679,0.220143,-0.60448,0.134457,-0.427829,0.0623261,-1.28121,-1.17085,-0.241473,-0.131682,-0.117698,-0.261018,-1.27702,-1.20888,-1.37819,0.256803,-0.744287,-0.644741,-0.294524,-0.830572,-1.22674,-0.62319,-1.2562,-1.24177,-0.110881,-0.0536268,0.230034,0.527049,0.121993,0.243217,-0.199227,-1.27642,-0.0683694,-1.33544,0.326312,-1.02793,0.195161,0.513374,-0.730506,-0.578041,-0.150037,-1.37993,-1.37079,0.0412159,-1.12055,-1.28071,-0.23371,-0.396562,-0.457182,-1.05996,0.241136,-0.215648,-0.214882,0.453212,0.0108483,-0.857492,-0.132144,-0.290847,-0.862172,-0.541881,-0.579359,0.406872,-0.350025,-1.17946,-1.46029,-0.555442,-0.739114,0.20314,-0.573797,-0.00134867,-0.90663,-1.25556,0.0869899,-0.809147,0.253923,0.434715,-0.621588,-0.511516,-0.493577,0.3895,-0.103209,-0.784169,-0.357877,-0.84982,-0.862687,-0.878758,-0.239041,0.47344,0.298666,0.367058,-0.60017,-0.812421,0.242201,0.518076,-0.523608,0.25018,-0.569096,0.205549,-0.078409,0.325378,-0.327528,0.483232,-1.46191,-0.772268,-0.857644,0.260279,-0.869282,-0.0109619,-0.782966,0.105412,-0.153191,-1.4179,-1.21049,-1.0428,-0.799453,-0.604903,-0.453284,0.429777,-0.663192,-0.686347,0.265106,0.204909,-0.0304972,-0.0244216,0.191256,-1.08583,-0.305971,-0.909569
-0.760786,-0.264881,-0.464692,0.379956,-0.313378,-0.458336,1.07596,0.297248,-0.729786,-0.325052,-0.245443,-0.0444817,-0.751369,1.06964,0.00588505,-0.493585,-0.504889,0.674703,0.369783,0.510098,0.572751,1.17486,-0.707978,0.306128,0.848042,0.729796,-0.250023,0.507569,1.11223,0.912277,1.06627,1.16849,-0.535561,-0.581378,0.365489,-0.0318956,-0.222671,0.258492,1.0824,-0.135414,0.750484,-0.346004,0.637148,0.816158,-0.459323,-0.539924,1.13962,-0.147169,0.951822,0.326442,1.17997,0.341616,0.318348,-0.710962,-0.535213,-0.0165662,0.835877,0.0318074,-0.691954,0.765153,-0.238872,-0.808639,0.750686,0.0426108,-0.572974,-0.0667811,0.827758,0.021398,1.00875,0.727197,0.703027,0.576281,-0.801763,0.157218,0.209482,-0.444043,0.434338,0.166141,0.225831,0.203203,-0.690373,0.222847,-0.638137,0.445018,0.328928,-0.356307,-0.754504,-0.0181523,0.492544,-0.629415,-0.435956,1.07072,-0.621011,1.13177,-0.0696307,-0.376942,-0.117964,-0.424829,0.461499,-0.292167,1.11941,-0.0184299,1.10116,1.13469,0.955832,0.127684,-0.492308,0.207213,1.11087,0.550566,-0.772541,-0.762461,-0.409544,-0.593635,0.499601,0.736427,-0.132899,0.562139,-0.464682,1.17669,0.749768,-0.0835949,1.06445,0.9458,-0.134778,-0.188141,-0.614098,0.564301,0.204074,0.664444,1.08918,0.140529,-0.536942,1.00738,0.0922643,-0.764067,-0.0478946,0.417,0.260189,-0.119983,-0.215391,0.304691,-0.0654009,0.192108,0.5281,-0.748757,-0.254422,-0.787756,0.630426,0.0979396,-0.794024,0.197237,0.831388,1.08747,-0.0399196,-0.486347,-0.283631,0.163025,0.894997,0.737486,-0.355487,0.801218,-0.304941,-0.0753858,0.625639,0.604366,-0.0224097,-0.605212,-0.161591
0.765742,-0.197232,0.150981,-0.112523,0.554411,-0.839867,-0.76738,0.622697,-0.277245,-0.738092,0.0701661,0.637738,-0.715073,-0.915554,0.286169,-0.810563,-0.13843,0.616865,-0.277151,0.841639,0.328906,-0.722621,-0.696805,-0.0528336,-0.210519,0.0448527,-0.610151,-0.78911,0.839486,-0.398319,-0.133657,0.711352,0.510573,-0.876552,-0.295048,0.171107,-0.610296,0.0436958,-0.100073,0.218582,0.411727,-0.923783,-0.0375565,0.802777,-0.733213,-0.645264,-0.901663,0.23448,-0.922275,-0.0726901,0.182242,0.512754,0.310812,0.591561,-0.433957,-0.793584,-0.257463,0.062016,-0.47657,-0.311853,0.76982,0.495896,-0.494378,0.386516,0.725468,0.316698,-0.336254,-0.778705,-0.533483,0.669797,0.546001,-1.01563,0.852137,-0.385432,0.893268,-0.774953,0.0754273,-0.902271,0.565651,0.259275,0.131162,-0.145984,-0.121848,-0.451902,-0.4483,0.550319,-0.139363,0.400361,-0.281541,0.490191,-0.805369,-0.405598,0.0922105,-0.193624,-0.912958,-0.0761986,-0.770803,-0.143088,0.25122,-0.198162,-0.367168,-0.0966557,-0.107671,-0.408907,0.624036,-0.10828,-0.0777363,-0.194414,0.0955724,-0.405962,-0.829015,-0.667142,0.554177,0.155261,-0.0129211,-0.787999,-0.188296,-1.04616,0.718485,0.636286,0.550154,-0.980761,-0.663189,-0.251513,-0.0682615,-0.470023,0.778412,0.267059,0.493012,0.135756,-0.824979,-0.768033,-0.854777,0.173473,-0.0708164,0.875382,-0.828684,-1.04243,-0.212908,0.373012,-0.342268,0.0642008,0.811994,-0.681967,-0.674415,-0.0948041,-0.363843,0.243412,-0.0348412,-0.539234,-0.0141789,-0.378564,-0.413872,0.428756,0.476047,0.62399,-0.935144,0.360582,-0.00282691,0.663991,-0.397538,0.278317,-0.997918,-0.146192,-0.442087,0.0373887,-0.164686,-0.164647,0.101083
0.421007,-0.993035,0.557415,-0.408669,-1.07492,-1.01843,0.0230392,-0.0635984,-0.276148,-0.627425,-0.992316,0.290741,0.464519,-0.264757,-1.01701,-0.000601623,-0.682587,-1.28689,0.170378,-1.21588,-0.183597,-0.059508,-0.507296,-0.799156,0.048697,0.452636,-0.13512,-0.807791,-0.605926,-1.19364,0.399415,-0.771273,-0.773031,0.370477,0.233705,-0.434301,-1.23431,-0.329609,-1.08425,-0.0968068,0.456612,-0.662922,-0.392419,0.334778,0.485968,0.00422072,-0.252176,-0.782972,0.130974,-0.668152,-0.585206,-0.638976,-1.31401,0.321145,-0.0244852,0.148331,0.187428,-0.745958,-1.24581,-1.00485,-0.525954,0.567249,-0.362477,0.114662,0.351373,-0.715125,-0.905992,0.530715,0.368912,-0.576598,-0.152445,0.239171,0.174126,-1.13122,-0.0124033,0.0737412,0.28665,-0.850933,-1.29558,-0.168729,-0.105438,-0.467143,-1.39406,-0.00580384,-0.732351,-0.00489589,-0.443826,-1.13128,-1.33721,-0.275992,-0.72248,-0.449514,-0.295096,0.32869,-0.921205,-0.530076,-0.972789,-0.41355,-0.585714,-1.19023,0.423498,-1.32451,0.462589,0.0112716,-1.04208,-0.136168,-0.50134,-1.34179,0.426546,-0.383277,-0.0968676,-0.265244,0.563227,-0.0772783,-0.857401,-0.755477,-0.668527,0.112419,-0.473106,-0.592087,-0.749926,0.218061,0.372046,0.368625,-0.0396024,-1.13551,-0.747804,0.401256,-0.135416,0.0801283,-1.37533,-0.298271,0.169262,0.500908,-0.873352,0.540826,-0.221612,0.0389542,-1.38731,-0.381419,-0.930676,-0.0705337,-1.23302,-0.953803,-0.734165,-0.676771,-0.295633,0.0109545,-1.1507,-1.35509,-1.16749,-0.486984,0.276616,-1.38179,-0.704712,-0.34934,-1.10366,-0.0388693,-0.534437,0.174572,-0.545094,-0.496118,-0.710052,-0.962185,-0.581562,-0.169757,-1.00771,-1.38953,-0.717156
